172 128
12 0.046809 -0.036289 0.034348 -0.177638 0.023540 0.065670 -0.222009 0.058082 0.103255 -0.110594 -0.186831 0.094686 -0.177388 -0.126240 0.034612 -0.181507 -0.222459 0.100575 -0.141267 -0.042981 0.048757 0.148033 -0.015102 0.065590 -0.157629 0.151191 0.267223 0.059152 0.127898 -0.158055 -0.007027 0.046224 0.169296 -0.043913 -0.201197 -0.024057 -0.010874 -0.097488 0.200316 0.180787 -0.065304 0.179580 -0.036538 0.111070 0.019652 0.283896 -0.125146 0.033738 0.059240 0.005216 -0.147367 0.055857 0.128965 -0.082917 -0.191367 -0.221357 -0.236780 -0.039148 -0.000815 -0.039808 0.134289 -0.157170 0.131304 0.046958 0.027217 0.262624 -0.050757 -0.014876 0.004736 0.080587 0.042838 0.012963 0.330497 -0.037789 0.271076 0.086866 -0.161475 -0.092434 -0.073983 -0.005861 0.158962 0.168463 -0.115004 0.009708 -0.141965 0.189149 0.022299 -0.091918 0.221928 -0.021472 0.279175 -0.043308 -0.027273 0.062260 -0.102025 0.030144 0.167909 -0.201966 0.201382 0.009837 -0.242375 0.053613 -0.242679 0.078733 0.179272 -0.314986 0.015003 -0.021206 -0.028323 -0.301414 0.070914 0.199638 -0.055123 0.051587 -0.167038 0.031262 -0.178681 0.238666 0.006267 -0.080206 0.029696 0.053890 0.202377 0.047520 0.055113 0.041908 -0.045771 0.166217
18 -0.048741 -0.184666 0.027369 -0.052058 0.020961 0.066616 -0.112831 -0.053959 -0.039125 -0.017554 -0.160299 0.091733 -0.088597 0.060683 -0.039285 -0.231692 -0.172911 0.103948 -0.098422 0.018778 0.097189 0.004564 -0.010292 -0.012479 -0.096636 0.120041 0.050926 0.028749 0.114482 -0.147539 -0.012952 0.023750 0.284806 0.064732 -0.119764 0.125660 -0.015831 0.060640 0.151090 0.103048 -0.172234 0.299519 -0.242240 -0.014755 -0.104731 0.340737 -0.056961 0.005343 -0.019426 -0.047982 -0.112045 0.082038 0.164428 0.070492 -0.344137 -0.297746 -0.103558 -0.179273 -0.056145 -0.057785 0.115179 -0.108674 0.121208 0.001639 -0.014168 0.035769 -0.116924 -0.070377 0.048201 0.156759 -0.011040 -0.005352 0.277761 -0.049168 0.124523 0.034314 -0.162940 -0.023444 -0.048586 0.059590 0.096441 0.052443 -0.039093 0.010090 -0.176385 0.117950 0.047501 -0.115289 0.153501 0.032797 0.272823 0.073834 0.062506 0.103748 -0.065949 0.001747 0.019283 -0.113381 0.208393 -0.057706 -0.182489 0.094356 -0.315224 0.027283 0.236131 -0.211522 -0.048626 -0.059940 0.098837 -0.344109 -0.024200 0.199816 -0.074439 0.088836 -0.142090 -0.020948 -0.108616 0.143634 -0.014699 -0.003083 0.089208 0.041418 0.144357 -0.079747 0.141570 -0.030853 -0.125608 0.097512
8 0.087558 -0.163339 0.063366 -0.073164 -0.020970 0.079626 -0.156279 0.106732 0.106559 0.077404 -0.139695 0.144177 -0.013066 -0.093429 -0.035034 -0.120139 0.061502 0.038302 -0.116887 0.066788 0.030653 -0.009694 -0.096649 0.055789 -0.035845 0.104744 0.033668 0.103554 -0.011197 -0.045941 -0.030328 0.062696 0.216429 0.043334 -0.194730 -0.014058 0.069937 0.015103 0.217837 0.090398 -0.182055 0.320046 -0.276692 -0.012068 -0.161663 0.344028 -0.053253 0.006915 0.019273 -0.043517 -0.078507 0.073324 0.174741 -0.035151 -0.360500 -0.269418 -0.091153 -0.106163 -0.163074 -0.124122 0.109712 -0.203404 -0.037856 -0.077193 0.024280 0.108350 -0.004604 0.056708 -0.175096 0.099863 0.052331 -0.111910 0.248015 -0.004317 0.127286 0.034149 -0.219737 -0.004013 -0.034310 -0.088266 0.244770 -0.065630 -0.125815 -0.046728 -0.253213 0.297213 -0.022452 -0.092333 0.142016 -0.024511 0.276076 0.078389 -0.021407 0.205828 -0.180031 -0.001904 0.197976 -0.292994 0.112766 0.063532 -0.271633 -0.032906 -0.177545 0.149285 0.317284 -0.249634 -0.069354 0.026549 0.067197 -0.315264 -0.073886 0.209325 0.070999 -0.005901 -0.151357 0.014816 -0.236851 0.180247 -0.076806 -0.027244 0.007255 0.044461 0.094703 0.017234 0.133968 -0.089630 -0.065794 -0.007214
67 0.003273 -0.010068 -0.052930 0.008409 -0.022677 0.204166 -0.182870 -0.122895 0.058839 0.194677 -0.197973 0.226529 -0.096881 0.051339 0.065404 -0.236876 -0.006272 0.219461 -0.017696 0.083789 -0.067195 0.072921 -0.068953 -0.189799 0.093535 -0.030897 0.022102 0.075801 0.105504 -0.072541 -0.132271 -0.093180 0.143167 0.163359 -0.058931 0.138535 0.068135 0.143348 0.133197 -0.051040 -0.070366 0.445783 -0.166512 -0.101277 -0.165827 0.251364 0.023862 0.073595 0.063863 0.001194 -0.106193 0.071803 0.108063 0.096038 -0.434886 -0.173737 -0.027356 -0.065833 -0.127171 -0.111119 0.099226 -0.133693 0.026371 -0.013838 0.112991 0.094600 -0.153348 -0.040766 0.033599 -0.034275 -0.146606 -0.030217 0.218891 -0.152820 0.244140 0.144685 -0.122995 -0.085021 0.105096 -0.015999 0.239961 0.123402 -0.124589 0.066371 -0.311352 0.209156 0.143618 -0.098901 0.210797 0.159574 0.270461 0.130760 -0.032963 0.236339 -0.149238 0.022955 0.140004 -0.171449 0.020660 -0.159385 -0.143048 -0.044863 -0.329543 0.040638 0.094697 -0.143939 -0.186865 0.068505 -0.064702 -0.236636 -0.050095 0.295296 -0.090957 0.164571 -0.144978 0.274960 -0.059476 0.196034 -0.091774 0.084252 0.002652 0.089188 0.122206 0.067255 0.169095 0.065588 -0.035371 0.256854
9 0.040659 -0.001972 0.036122 -0.045780 0.039740 0.060281 -0.215255 0.152123 0.204162 -0.046242 -0.137639 0.210420 -0.180725 -0.161806 -0.078254 -0.060767 -0.160718 0.241984 -0.098263 -0.018052 0.063369 0.044033 0.050908 0.059754 -0.209367 0.116153 0.220692 0.116864 0.037563 -0.203984 -0.051161 -0.044267 0.198517 0.013569 -0.080019 -0.052742 0.024938 -0.045726 0.271450 0.179208 -0.174394 0.275098 -0.133121 0.126045 -0.109566 0.308847 -0.068004 0.012430 0.029550 -0.110118 -0.030722 0.080115 0.181010 -0.171669 -0.297369 -0.264590 -0.172681 -0.170364 -0.211792 -0.064941 0.081100 -0.134274 0.074948 0.014627 0.088763 0.181500 0.086652 -0.067942 -0.191289 0.014109 0.023496 0.008650 0.278220 -0.101131 0.193501 0.094037 -0.147017 -0.086257 -0.099415 -0.063414 0.263745 0.163872 -0.083249 0.025012 -0.218798 0.261138 -0.004016 -0.156851 0.232350 0.076902 0.327794 0.042198 -0.017250 0.291631 -0.081433 0.002555 0.230399 -0.166536 0.142522 -0.028331 -0.271390 -0.072222 -0.264900 0.162908 0.395412 -0.303134 0.042873 0.114896 -0.025337 -0.273185 0.072329 0.267137 0.172256 0.018175 -0.178275 0.087887 -0.264758 0.186010 -0.073590 0.113627 -0.087252 0.100380 0.132248 0.246765 0.027247 -0.023148 -0.074453 0.154616
21 0.084089 -0.123609 0.056209 0.043082 -0.017734 0.003610 -0.152151 0.015799 0.201731 0.030282 -0.205536 0.248705 -0.149347 -0.039917 -0.002382 -0.087724 -0.123542 0.166325 0.040439 0.113196 0.135107 -0.052320 -0.010386 0.059648 -0.075155 0.158977 0.083270 0.036555 -0.094341 -0.185708 0.063693 -0.075386 0.214455 0.133474 0.092674 0.053317 0.018668 0.055464 0.287669 0.127180 -0.243593 0.397540 -0.279982 0.000292 -0.098804 0.338009 -0.027299 -0.001056 -0.031170 0.019658 -0.005237 0.126372 0.260514 -0.206783 -0.235743 -0.331789 -0.081650 -0.181322 -0.198982 -0.139598 -0.024065 -0.057469 0.067092 0.021015 0.026548 0.010828 -0.085505 -0.055884 -0.113059 0.215385 0.035335 -0.102191 0.218361 -0.030025 0.176500 0.105646 -0.241889 0.027075 -0.015283 0.057051 0.128018 0.012966 -0.063925 0.018100 -0.271459 0.235155 0.023115 -0.155156 0.063287 0.090323 0.264540 0.078555 -0.117611 0.323530 -0.078739 0.004817 0.078572 -0.089897 0.125713 -0.002462 -0.224522 0.029044 -0.204629 0.158220 0.395009 -0.211400 0.094187 0.086308 -0.020420 -0.172877 0.134156 0.314635 0.014113 0.036473 -0.216021 0.075712 -0.343559 0.029187 -0.039145 0.070118 0.101490 0.093933 0.232948 0.118862 0.264803 -0.104973 -0.010237 0.076213
52 -0.032393 -0.171910 -0.069022 -0.146605 0.047393 0.162416 -0.063067 -0.094255 0.055195 -0.295671 -0.306781 0.079302 -0.077775 -0.009621 -0.203144 -0.291198 -0.035817 0.265915 0.009468 0.021765 0.149486 0.155758 -0.103805 -0.143523 -0.164007 -0.077780 0.274728 0.066969 0.087207 -0.059411 0.155988 0.078749 0.284056 -0.189593 -0.306778 0.314986 -0.000366 0.110848 0.068571 -0.026793 -0.058570 0.222178 -0.119261 -0.068914 -0.123580 0.151301 0.156630 0.027395 0.194408 -0.006464 -0.260882 -0.169383 0.005991 0.106180 -0.228098 -0.209647 -0.152055 -0.077277 0.012023 0.099377 0.046361 -0.106432 0.056108 -0.025023 -0.180366 0.225959 -0.305292 0.050900 0.104342 0.009098 0.072849 0.082581 0.252083 -0.030327 0.083805 0.140314 -0.121520 -0.130516 0.015463 -0.132356 0.134506 0.010153 -0.184739 -0.013827 0.016016 0.109320 0.181824 -0.046968 0.213469 -0.142315 0.325950 0.117722 -0.023274 -0.083732 0.053627 0.054867 0.174677 -0.145228 0.099101 0.214478 -0.067939 0.213718 -0.148822 0.111455 0.314233 -0.071889 0.085504 -0.248739 -0.050519 -0.180143 -0.193122 0.204821 -0.016425 0.133237 -0.149334 0.026305 -0.089182 0.091792 -0.049572 -0.069909 0.148906 -0.048549 0.006633 -0.075112 -0.082768 0.190788 -0.162784 0.051561
7 0.031221 -0.062785 -0.005890 -0.234737 0.081979 0.041655 -0.256664 0.135655 0.175957 -0.202421 -0.262450 0.041311 -0.090544 -0.334326 0.082282 -0.171804 -0.127432 0.058161 -0.038631 -0.116065 -0.017955 0.144576 0.010946 0.202162 -0.131718 0.071505 0.198809 0.077334 0.217489 -0.166463 -0.038570 0.104209 0.014613 -0.144101 -0.377614 -0.123656 0.060740 -0.223793 0.196532 0.074321 0.015565 0.169220 0.054127 0.055622 0.066789 0.256413 -0.173541 0.007077 0.165670 -0.117025 -0.226903 -0.022335 0.030886 -0.058704 -0.442181 -0.149546 -0.084295 0.094967 -0.037689 0.041634 0.162347 -0.188530 0.152242 0.099241 0.014519 0.351668 -0.161608 0.069833 0.029181 -0.049011 0.030798 -0.052043 0.445848 -0.021355 0.297374 0.066159 -0.173781 -0.057663 -0.061539 -0.057709 0.219679 0.258405 -0.259220 -0.046294 -0.032285 0.187506 -0.034199 -0.183921 0.337376 -0.015669 0.349614 -0.057531 -0.084813 -0.002793 -0.164642 0.089728 0.205251 -0.319649 0.182828 0.019769 -0.283541 -0.080823 -0.149158 0.085109 0.190176 -0.293837 -0.044589 0.061361 -0.205581 -0.126833 0.141089 0.256885 0.004362 -0.040225 -0.228961 0.016271 -0.079983 0.305435 -0.039329 -0.088951 -0.065869 0.157258 0.167606 0.088136 -0.031712 0.235689 -0.033693 0.210599
96 0.011167 -0.239836 -0.235960 -0.043284 0.010081 0.158427 -0.676832 -0.285537 0.351875 -0.190155 -0.316999 0.248760 -0.196675 -0.205801 -0.101986 -0.462741 0.027856 0.344305 0.125065 -0.043341 0.263392 0.422861 -0.272234 -0.206958 0.066362 -0.173252 0.515648 -0.271967 0.041351 -0.000330 -0.061959 -0.252987 0.129537 -0.019244 0.063417 0.162700 -0.156496 0.232010 0.084783 -0.154545 -0.044561 0.379604 -0.396957 -0.127064 -0.008726 0.290778 0.126657 -0.094755 0.303496 0.371422 -0.351298 0.129702 0.012836 0.129315 -0.002368 -0.269872 -0.219744 0.170593 0.010726 0.122520 0.020560 -0.184771 -0.011306 0.029807 0.080965 0.154948 -0.174573 0.013810 -0.136228 0.173906 0.048026 -0.177110 -0.002340 0.199648 0.348216 0.307609 0.001726 0.108994 0.145528 -0.170114 -0.195935 0.124797 -0.327972 -0.183737 -0.231932 0.157042 0.100098 -0.044656 -0.074983 0.031564 0.065124 -0.006179 -0.080995 -0.240119 -0.113320 -0.026040 -0.039934 -0.313370 0.238607 -0.018758 -0.046677 0.062218 -0.205373 0.019504 -0.068219 -0.264394 -0.420487 0.019938 0.088344 -0.449234 -0.026490 0.276659 0.054490 -0.025762 -0.041826 0.148412 0.144596 0.262075 0.062765 0.141225 0.176846 0.064491 0.092575 -0.458602 0.099582 0.101897 0.198942 0.217487
25 0.015648 -0.183747 -0.016355 0.123962 0.058260 0.133241 -0.080051 -0.030968 0.032674 0.021581 -0.250412 0.232451 0.166076 -0.136682 -0.180145 -0.162810 0.031217 0.217927 0.108876 0.082649 0.143141 -0.084041 -0.027104 -0.082490 0.020750 -0.184574 0.065790 0.120229 0.121366 -0.078471 0.011199 0.061232 0.108516 -0.070458 -0.360902 0.235013 0.090617 0.096884 0.017180 -0.156032 -0.222521 0.340015 -0.211625 -0.180526 -0.243018 0.344063 0.045396 -0.005963 0.137967 -0.116314 -0.077824 -0.117674 0.060759 0.192955 -0.617799 -0.202883 -0.034664 -0.201822 -0.157800 -0.040450 0.170366 -0.087778 -0.057159 -0.058321 -0.125434 0.003695 -0.221503 0.024664 0.097747 -0.044684 -0.016262 -0.151698 0.279233 0.028940 -0.129961 0.097172 -0.074113 0.007325 0.124069 -0.175864 0.144100 -0.104286 -0.172889 -0.153305 -0.072384 0.112606 0.001335 -0.179395 0.098875 -0.093511 0.217345 0.112784 0.070201 0.146163 -0.009932 0.114328 0.017622 -0.173050 0.044623 0.158783 -0.154295 -0.037395 -0.084264 0.060333 0.173943 -0.068984 -0.080281 -0.014997 -0.045695 -0.013773 -0.217013 0.102375 0.227867 -0.002764 -0.074699 0.139125 -0.064145 0.233115 -0.176640 0.077013 -0.038682 0.001227 -0.077383 -0.088222 0.036597 0.092141 -0.237993 -0.006365
135 -0.107676 -0.226389 0.076235 0.064875 -0.011857 0.149120 0.027787 -0.004021 0.056166 -0.029343 0.003939 0.239307 -0.198576 0.096664 -0.108718 -0.309066 -0.080675 -0.000142 -0.068926 -0.100295 0.129772 -0.032928 -0.020430 -0.110341 -0.074399 0.065195 -0.111469 0.158164 0.034957 -0.097448 -0.135262 -0.150508 0.183128 0.254773 0.054491 0.135005 0.024102 0.005463 0.082063 0.069660 -0.080060 0.383432 -0.141163 0.010724 -0.213582 0.218957 -0.007813 -0.157642 -0.002579 0.004957 -0.192327 0.048668 0.139394 0.018465 -0.542799 -0.334126 -0.019821 0.019859 -0.162613 0.034699 0.066785 -0.127521 -0.042953 0.005305 0.031100 -0.032256 -0.122071 -0.042393 -0.250881 0.099230 0.085366 0.036420 0.259581 -0.158716 0.126699 0.066716 -0.024570 -0.016926 0.047008 0.054979 0.145383 -0.072123 -0.120381 0.092587 -0.185844 0.226299 -0.039398 -0.143451 0.218829 0.070402 0.122894 0.252207 -0.151618 0.036111 -0.055068 0.067820 -0.008673 -0.180403 0.075015 -0.067627 -0.125223 0.107296 -0.220229 0.120451 0.346745 -0.159175 -0.020435 0.059873 -0.000486 -0.398389 -0.110072 0.112188 -0.056060 0.213778 -0.197587 -0.084951 -0.117954 0.112244 -0.008939 0.044686 0.109755 0.175524 0.032418 0.007215 0.140180 0.052499 0.022795 0.283745
98 0.045008 -0.158547 0.094232 -0.060252 -0.065304 0.008107 -0.139875 0.154426 0.100843 0.143421 -0.007808 0.069944 -0.012842 -0.057722 0.001632 -0.141095 0.024467 -0.002263 -0.128600 0.038836 0.049248 -0.086871 -0.034268 0.098964 -0.039273 0.202976 -0.022360 0.062205 -0.045725 -0.064888 -0.036993 0.023632 0.206907 0.115868 -0.060303 -0.041875 -0.007112 0.066092 0.232646 0.144708 -0.241550 0.348939 -0.353271 0.084441 -0.091300 0.351551 -0.070662 0.046405 -0.022195 -0.034276 -0.047096 0.140346 0.204226 -0.034782 -0.283473 -0.360047 -0.096366 -0.115806 -0.194712 -0.129914 0.034004 -0.181968 -0.034631 -0.089926 0.021093 0.073736 0.050836 0.038635 -0.262511 0.224486 0.147085 -0.119284 0.189993 0.017710 0.144313 0.013338 -0.158379 0.054172 -0.039467 -0.081389 0.228055 -0.101369 -0.100823 -0.057925 -0.317568 0.292129 -0.111022 -0.092490 0.156592 0.055947 0.276069 0.084694 0.001816 0.228605 -0.253807 -0.026809 0.144214 -0.227640 0.167933 0.010735 -0.345320 -0.010721 -0.215833 0.133449 0.349218 -0.225615 -0.032387 0.111155 0.130499 -0.429568 -0.012059 0.233666 0.089725 -0.044015 -0.101039 -0.058023 -0.234790 0.202260 -0.093649 -0.007916 0.075587 0.082494 0.143370 -0.012686 0.206258 -0.168192 -0.059010 0.000589
72 0.000950 0.001543 0.032299 -0.106819 -0.028626 0.203286 -0.142032 -0.045523 0.041618 0.117947 -0.219490 0.201291 -0.145910 -0.043635 0.129056 -0.224294 -0.056494 0.156236 -0.077777 0.028298 -0.057582 0.082180 -0.043047 -0.089123 0.021323 0.066521 0.057211 0.170038 0.098889 -0.157605 -0.146202 -0.023501 0.115577 0.128521 -0.092389 0.015458 0.104765 -0.062188 0.175658 0.043718 -0.036062 0.409969 -0.042907 -0.033299 -0.092782 0.255226 -0.087124 0.096106 0.061442 -0.043695 -0.092046 0.039822 0.147673 0.024445 -0.469448 -0.167613 -0.103838 0.010821 -0.094846 -0.126700 0.080446 -0.153118 0.055912 -0.022386 0.105589 0.197843 -0.133998 -0.062110 0.024952 -0.050938 -0.096560 -0.038014 0.310131 -0.156954 0.291227 0.083144 -0.121167 -0.158693 0.072243 -0.031879 0.300336 0.137707 -0.135719 0.086965 -0.229774 0.231917 0.085921 -0.134841 0.322035 0.181270 0.309531 0.056485 -0.094570 0.221549 -0.161220 0.047430 0.168328 -0.158614 0.010670 -0.186141 -0.166865 -0.050543 -0.282197 0.082900 0.133455 -0.173782 -0.113453 0.068403 -0.169222 -0.202687 0.021298 0.265161 -0.117867 0.156839 -0.208026 0.216353 -0.091198 0.210612 -0.055526 0.012503 -0.000424 0.148351 0.193853 0.171238 0.189905 0.115306 -0.041317 0.313590
51 -0.051950 -0.197165 -0.312435 -0.198499 -0.033795 0.182760 -0.516156 -0.259658 0.201757 -0.040154 -0.301643 0.110430 -0.145637 -0.098318 -0.011829 -0.454157 0.086784 0.300953 0.055637 -0.017194 0.041923 0.366821 -0.168665 -0.260493 0.110357 -0.103642 0.426300 -0.193031 0.188517 0.052245 0.014337 -0.128452 0.125980 -0.049050 0.006563 0.224418 -0.123014 0.266964 0.017252 -0.172755 0.022127 0.369159 -0.304484 -0.182433 -0.073425 0.137051 0.162905 0.112906 0.237226 0.237886 -0.416189 0.087399 -0.084517 0.187332 -0.112337 -0.286053 -0.097739 0.086313 0.037728 0.075473 0.063462 -0.169014 0.032202 0.040712 0.031708 0.184245 -0.299252 0.140650 0.027089 0.140326 0.003289 -0.030450 0.087844 0.006854 0.333771 0.278635 -0.022471 0.054499 0.182084 -0.060216 0.001903 0.088012 -0.286297 -0.122714 -0.249672 0.147800 0.233981 0.046559 -0.074088 0.090666 0.077140 0.043484 -0.101093 -0.312351 -0.138124 -0.024768 0.093299 -0.251229 0.052720 -0.017932 -0.056667 0.136510 -0.244271 0.040820 -0.023354 -0.180604 -0.343203 -0.046802 0.059331 -0.352717 -0.090126 0.282366 -0.225316 0.072420 -0.037178 0.132813 0.166574 0.131030 -0.026432 0.044366 0.209369 0.057043 0.063076 -0.340752 0.135188 0.137734 0.099315 0.175448
35 -0.081570 0.039540 -0.023317 -0.076424 0.027638 -0.020192 -0.202832 -0.050038 0.320551 -0.146385 -0.299595 0.165633 -0.203711 -0.171790 0.050320 0.153603 -0.158607 0.360255 0.272304 0.051870 0.298948 0.171685 0.013396 0.132669 0.001728 0.092728 0.379803 -0.059799 -0.359771 -0.232575 0.158030 -0.023416 0.130730 -0.364998 0.270746 0.003911 -0.084149 -0.123476 0.236007 0.082033 -0.160885 0.209943 -0.101987 -0.132598 0.102308 0.205896 0.115000 0.168669 0.157181 -0.004797 0.003264 -0.094872 0.225032 -0.213451 0.109722 -0.393083 -0.273059 -0.042098 -0.100291 -0.136842 -0.280950 0.081513 0.017326 0.012835 -0.187946 0.221541 -0.111078 0.047206 0.222336 0.209890 0.105355 -0.065413 0.091602 0.176173 0.221191 0.176090 -0.074579 0.121264 -0.012625 -0.162354 0.158016 -0.034075 -0.119584 -0.257114 -0.028577 0.241521 0.141444 -0.268846 0.006588 0.288312 0.398769 -0.082792 -0.111002 0.044614 -0.027454 -0.040903 0.113294 0.038267 0.005177 0.051844 -0.034855 0.083160 0.013589 -0.004863 0.501870 -0.116119 0.224416 0.098445 -0.146242 0.128144 0.122583 0.463221 0.040727 -0.120298 -0.309818 0.260276 -0.115939 -0.107506 -0.054105 0.006704 0.276786 0.126533 0.217326 0.217017 0.214624 0.145115 -0.109069 0.201663
82 -0.014055 -0.136533 0.030320 -0.127033 0.121317 0.106118 -0.144736 -0.097838 -0.022912 -0.154308 -0.393973 0.145438 0.010379 -0.112210 -0.165001 -0.038410 -0.088270 0.427029 0.009277 0.028391 0.277337 0.199256 -0.113489 -0.155192 -0.121030 -0.204755 0.203582 0.142676 -0.102895 -0.176008 0.054392 0.138832 0.233209 -0.328924 -0.394670 0.130667 0.125900 0.202110 0.132258 -0.081435 -0.190772 0.186150 -0.214674 -0.059558 -0.057954 0.281590 0.223441 0.076416 0.168343 -0.134394 -0.025222 -0.031507 0.152967 0.183419 -0.202803 -0.132011 -0.146686 -0.102645 -0.137878 -0.057767 0.005955 -0.073048 -0.040928 -0.107948 -0.127378 0.198874 -0.048040 -0.035086 0.127122 -0.291781 -0.068871 0.002654 0.126965 0.052946 -0.013050 0.080223 -0.108628 -0.223798 -0.033452 -0.221932 0.246284 0.109873 -0.098522 -0.042179 -0.092875 0.135638 0.112621 -0.124393 0.378586 -0.157201 0.475886 0.083392 0.234530 0.249937 -0.026038 -0.004574 0.213184 -0.172192 0.150260 0.014689 -0.186960 -0.010511 -0.175286 -0.049632 0.197256 -0.069053 -0.024451 -0.124306 0.034268 -0.203901 -0.207963 0.284557 0.266332 0.123998 -0.127037 0.207773 -0.072038 0.355804 -0.079672 0.060717 -0.048232 -0.117780 0.009464 -0.053023 -0.147635 0.162196 -0.243475 0.014779
111 0.105789 -0.153133 -0.354782 -0.202735 -0.036322 0.214217 -0.648401 -0.189222 0.331433 -0.022199 -0.352028 0.177361 -0.086657 -0.206994 -0.057374 -0.519566 0.119214 0.358361 0.030087 0.090689 0.063183 0.342127 -0.199899 -0.272550 0.166567 -0.089816 0.519622 -0.207442 0.218976 0.038454 0.040530 -0.165374 0.097726 -0.019028 -0.007961 0.290862 -0.184648 0.327957 0.080627 -0.234831 -0.085488 0.409888 -0.441809 -0.116197 -0.087714 0.138270 0.119726 0.179458 0.289648 0.326991 -0.355183 0.070899 -0.085071 0.202261 -0.011346 -0.278018 -0.148198 0.044969 0.062727 0.006987 0.049100 -0.214199 0.004846 0.022455 0.094107 0.232866 -0.285215 0.137258 -0.023074 0.254565 0.048765 -0.093646 0.090017 -0.002684 0.326056 0.382917 -0.012498 0.051317 0.329756 -0.105390 -0.018474 0.015651 -0.369126 -0.114087 -0.300069 0.172143 0.208840 0.058466 -0.141869 0.073014 0.084627 0.008071 -0.143522 -0.279228 -0.207899 -0.010749 0.110009 -0.263154 0.078011 0.058014 -0.108427 0.143455 -0.268765 0.078192 -0.056644 -0.209365 -0.388903 -0.061316 0.104485 -0.339544 -0.089436 0.313041 -0.148150 0.017844 -0.042860 0.135367 0.118663 0.156951 -0.096020 0.091436 0.166085 0.009314 0.059888 -0.379034 0.250826 0.049282 0.087513 0.090702
71 -0.051118 -0.092136 -0.000253 -0.101476 -0.016723 0.160077 -0.119044 -0.087894 -0.006032 0.107128 -0.226365 0.179282 -0.108821 0.003166 0.123884 -0.233323 -0.027291 0.140010 -0.049153 0.006200 -0.072708 0.082715 -0.019648 -0.097108 0.020027 0.022615 0.008373 0.132332 0.122448 -0.132031 -0.127984 -0.033248 0.120973 0.113282 -0.081024 0.024205 0.117364 -0.032237 0.131044 0.005563 -0.012148 0.401471 -0.027328 -0.134894 -0.130964 0.242138 -0.032686 0.065926 0.047992 -0.083247 -0.164954 0.070155 0.087032 0.032483 -0.545498 -0.186082 0.004102 -0.004750 -0.097631 -0.071559 0.112699 -0.129887 0.065738 -0.008274 0.062384 0.133671 -0.181020 -0.032857 0.044472 -0.067607 -0.116069 -0.015508 0.286693 -0.165875 0.260796 0.054897 -0.123726 -0.111255 0.048138 0.007395 0.288160 0.166107 -0.106048 0.061784 -0.213023 0.207330 0.110770 -0.147055 0.271901 0.185553 0.260703 0.108159 -0.075955 0.164787 -0.136051 0.048244 0.163802 -0.172332 0.000031 -0.191332 -0.140738 -0.069766 -0.261518 0.086269 0.135570 -0.148364 -0.152298 0.064573 -0.155014 -0.181051 -0.010222 0.232763 -0.163023 0.146730 -0.188163 0.201687 -0.032307 0.180505 -0.049457 0.026958 -0.008533 0.179453 0.149907 0.146779 0.139109 0.157540 -0.028254 0.287547
77 0.013621 0.116606 -0.075942 -0.161722 -0.029829 0.308043 -0.189067 -0.048033 0.018120 0.160662 -0.239798 0.191936 -0.182166 -0.022677 0.098755 -0.325010 0.052254 0.250430 -0.042323 0.090609 -0.200809 0.143246 -0.102774 -0.248296 0.061848 0.006698 0.091187 0.195339 0.234672 -0.058597 -0.169143 -0.065588 0.117286 0.206716 -0.163795 0.120610 0.058773 0.022551 0.216862 -0.021393 -0.001026 0.389875 -0.053440 0.038992 -0.189573 0.163077 -0.075937 0.102933 0.118714 -0.049378 -0.087496 -0.051246 0.057307 0.096118 -0.438699 -0.088666 -0.111507 0.094201 -0.119684 -0.055647 0.047746 -0.199022 0.077740 -0.006563 0.155330 0.281389 -0.138504 0.003270 0.030800 -0.140055 -0.148913 0.042140 0.256053 -0.273447 0.327749 0.162960 -0.086202 -0.201544 0.135607 -0.087003 0.351219 0.144219 -0.219468 0.155030 -0.221736 0.232603 0.158048 -0.035024 0.380422 0.179192 0.346944 0.068565 -0.108097 0.241802 -0.213133 0.036635 0.247105 -0.147340 -0.016428 -0.174928 -0.160824 -0.022335 -0.351873 0.002595 0.135896 -0.079652 -0.136105 0.064268 -0.166579 -0.261954 -0.031113 0.383849 -0.133413 0.241081 -0.206298 0.296077 -0.048690 0.208667 -0.139619 0.037830 0.010628 0.071337 0.135420 0.191025 0.098451 0.164331 -0.032020 0.362254
87 -0.162000 -0.379536 0.078998 0.106661 0.170917 0.086033 0.122447 -0.022403 0.048047 -0.344818 -0.069541 0.212399 -0.099825 -0.092768 -0.203618 -0.241754 -0.027256 0.045393 0.160101 -0.164388 0.273618 -0.047164 -0.002480 -0.092801 -0.154472 -0.134932 -0.047506 0.136755 0.033049 -0.162577 -0.015435 -0.004784 0.138323 -0.031915 -0.065517 0.155246 0.053978 -0.111343 -0.046851 0.019457 -0.066226 0.299507 -0.018844 -0.159633 -0.182177 0.259262 0.079339 -0.283141 0.186311 -0.138379 -0.306370 -0.108215 0.023646 0.091059 -0.707376 -0.309238 -0.010462 0.117741 -0.159881 0.168787 0.073762 -0.058187 -0.070672 0.110201 -0.239021 -0.095173 -0.276016 0.037563 -0.053091 -0.027125 0.179270 -0.054877 0.325108 -0.019185 0.023559 0.072349 0.032563 0.166801 0.089481 -0.110423 0.075309 -0.108697 -0.247691 -0.048507 0.070770 0.156823 -0.140267 -0.210384 0.130262 -0.078137 0.035521 0.285870 -0.103278 -0.209129 0.085513 0.175138 -0.051261 -0.261088 0.090696 0.117798 -0.095281 0.168389 0.142830 0.115474 0.376905 -0.030133 0.173203 0.093863 -0.206317 -0.174814 -0.217592 0.015020 0.093878 0.077370 -0.167855 -0.075166 -0.080484 0.113009 -0.027623 -0.001984 0.091643 0.214344 -0.123446 0.003234 -0.109722 0.267231 0.004684 0.227806
92 -0.019192 0.029322 0.080393 -0.120092 0.220884 0.113436 -0.004145 0.122994 -0.030432 -0.263908 -0.070909 0.180532 -0.066574 -0.365145 -0.096320 -0.188951 0.031441 0.236430 0.067771 -0.016383 0.217817 0.018408 -0.037873 -0.316150 -0.059246 -0.074992 0.141106 0.262283 0.099530 -0.239328 0.001582 0.132009 -0.075049 -0.066873 -0.099210 0.042754 -0.094910 -0.240927 0.110078 0.051718 -0.144174 0.016890 0.066348 0.186044 -0.073553 0.106248 -0.030736 -0.088023 0.332336 -0.181136 0.062134 -0.281149 0.004265 0.200378 -0.272272 -0.030000 -0.300348 0.389658 -0.104269 0.000145 -0.159925 -0.060279 -0.137350 0.124380 -0.225723 0.146720 -0.033460 0.100013 0.029307 -0.240847 0.173634 -0.091676 0.198671 -0.191807 0.099332 0.235363 0.243539 0.065852 0.438083 -0.410286 0.375142 -0.182532 -0.359776 0.052021 0.129690 0.183998 -0.179233 0.004626 0.288237 -0.060571 0.111088 0.132263 -0.040091 -0.058919 -0.261941 0.133094 0.123545 -0.188569 0.073637 0.046458 -0.272235 0.315729 0.238688 -0.148349 0.151460 0.121446 0.362565 0.328732 -0.295160 -0.217291 -0.212311 0.191518 0.262386 0.063678 -0.192480 0.205765 -0.117721 0.390296 -0.250627 0.015910 0.044321 0.042430 -0.102887 0.145019 -0.081123 0.267908 -0.013422 0.248820
133 0.011714 -0.106457 -0.244391 -0.063128 -0.022429 0.190351 -0.428887 -0.118628 0.149874 0.127927 -0.242295 0.162808 -0.047310 -0.101253 -0.045725 -0.372970 0.045733 0.294328 0.018686 0.071904 -0.037603 0.171385 -0.088152 -0.215617 0.117737 -0.048446 0.276818 -0.071749 0.267978 0.005842 -0.041100 -0.115292 0.103606 0.079779 -0.096656 0.246049 -0.098768 0.262363 0.059476 -0.167803 -0.083042 0.395648 -0.327170 -0.096455 -0.182017 0.194277 0.027426 0.126686 0.132257 0.105795 -0.234068 0.065585 -0.037339 0.191348 -0.302007 -0.248256 -0.059861 -0.067361 -0.046312 -0.032244 0.132589 -0.176964 0.035541 0.028757 0.102186 0.107057 -0.215534 0.069879 0.020637 0.111964 -0.074247 -0.034615 0.171769 -0.082148 0.202404 0.259797 -0.058146 0.016481 0.210208 -0.027740 0.077347 0.051007 -0.241416 -0.040700 -0.264238 0.153282 0.178711 -0.007722 -0.007660 0.109101 0.146060 0.048554 -0.047975 -0.058576 -0.150616 -0.010975 0.066295 -0.197443 0.054141 -0.043907 -0.132787 0.028359 -0.329747 0.011247 0.009212 -0.176579 -0.335467 0.000626 0.108420 -0.280693 -0.097072 0.276971 -0.102596 0.072913 -0.036587 0.128371 0.092556 0.160438 -0.124532 0.092631 0.060107 0.033874 0.044419 -0.225883 0.195200 0.037574 -0.045823 0.117093
159 -0.048618 -0.061716 -0.204113 -0.155613 0.026427 0.154685 -0.310879 -0.133294 0.042453 0.057655 -0.161610 0.096564 -0.209158 0.127341 -0.016325 -0.304552 -0.076193 0.283731 -0.016628 0.121808 -0.073807 0.195806 -0.066840 -0.272893 0.034483 0.147240 0.231421 -0.057184 0.197747 -0.028164 0.093351 0.000684 0.293284 0.096574 0.069296 0.276579 -0.213165 0.201368 0.140954 0.027595 -0.082402 0.231167 -0.290458 -0.038920 -0.183200 0.142961 0.068870 0.123010 0.030229 0.063909 -0.175817 0.078836 0.013659 0.143503 -0.042609 -0.321460 -0.190806 -0.054373 0.002527 -0.102575 0.025275 -0.118004 0.121353 0.122322 0.024716 0.036291 -0.132380 0.149214 0.143158 0.153347 -0.059733 0.151994 0.146458 -0.150969 0.246300 0.208167 -0.113144 0.120864 0.126906 0.061182 0.109978 -0.046697 -0.185280 0.045021 -0.231190 0.175480 0.251097 0.104105 -0.074060 0.165965 0.168310 0.074125 -0.010959 -0.125357 -0.132245 -0.107841 0.071254 -0.095337 0.062134 -0.008154 -0.122088 0.285584 -0.363370 -0.191481 0.193251 -0.082759 -0.048105 -0.014243 0.219240 -0.397356 -0.085047 0.390978 -0.319876 0.133915 -0.099037 0.030008 0.047020 -0.060467 -0.119570 -0.044921 0.235544 -0.066263 0.068527 -0.132580 0.145310 -0.011075 -0.103572 0.102787
17 0.082998 -0.110604 0.085432 -0.118788 0.050816 0.097892 -0.110199 0.123373 0.125149 -0.109924 -0.222479 0.221167 -0.109820 -0.130559 -0.084082 -0.325972 -0.097888 0.044720 -0.104132 0.023928 0.119641 0.038221 -0.087030 -0.018210 -0.174675 0.081106 0.251908 0.168942 0.166069 -0.076875 0.011046 0.003069 0.153957 0.085585 -0.294463 0.061700 0.033439 -0.082084 0.150311 0.092363 -0.130467 0.249968 -0.082519 0.117854 -0.134574 0.280598 -0.109183 -0.073586 0.099323 0.051511 -0.143483 -0.056700 0.107138 -0.036855 -0.315398 -0.229924 -0.248021 -0.017181 -0.086759 0.016612 0.138634 -0.180502 0.068208 -0.053141 -0.013063 0.211857 -0.139262 0.017520 -0.099981 0.069742 0.099684 -0.059175 0.266125 -0.055021 0.117741 0.082852 -0.137449 -0.110212 -0.019844 -0.142429 0.085020 0.009402 -0.105664 0.031632 -0.141076 0.171209 -0.037925 -0.027622 0.221834 -0.183750 0.189330 -0.011422 -0.102623 0.148116 -0.153906 0.117003 0.150955 -0.180594 0.212683 0.219097 -0.241037 0.109464 -0.159801 0.135083 0.212767 -0.200888 0.116452 -0.052489 -0.115076 -0.292800 0.013069 0.095797 0.078058 0.023439 -0.107683 -0.005340 -0.286997 0.277897 -0.030093 -0.053598 0.105571 -0.035310 0.101581 -0.014883 -0.027132 -0.033016 0.032117 0.083097
69 0.027853 0.079896 -0.070115 -0.074622 -0.065258 0.308594 -0.185747 -0.133975 0.018135 0.213869 -0.230581 0.241100 -0.129548 0.014845 0.156603 -0.292102 0.088598 0.258792 -0.045818 0.105009 -0.214628 0.128147 -0.088680 -0.293051 0.126685 -0.039436 0.043550 0.132720 0.165392 -0.065244 -0.193605 -0.092730 0.108851 0.243264 -0.050855 0.121526 0.095365 0.003478 0.186705 -0.008118 0.015142 0.474416 -0.030434 -0.094637 -0.201937 0.213150 -0.021218 0.093127 0.136030 -0.020021 -0.102295 0.003324 0.042634 0.081209 -0.524548 -0.073261 -0.068405 0.085307 -0.084144 -0.112564 0.082260 -0.181250 0.054313 0.003795 0.151834 0.213029 -0.183625 -0.033220 0.037405 -0.140850 -0.180897 -0.031400 0.260069 -0.280422 0.399599 0.176723 -0.088283 -0.147605 0.218042 -0.086370 0.395779 0.205812 -0.208602 0.152686 -0.262302 0.258487 0.173253 -0.073821 0.322943 0.254204 0.294537 0.125336 -0.126664 0.253101 -0.217355 0.036354 0.249561 -0.202753 -0.066635 -0.259463 -0.128256 -0.058370 -0.308609 0.053595 0.061631 -0.096652 -0.200720 0.123371 -0.218518 -0.221357 -0.065178 0.361372 -0.172778 0.233339 -0.219977 0.399624 -0.020154 0.190696 -0.134460 0.075260 -0.021822 0.174552 0.161794 0.228941 0.192218 0.193174 0.005170 0.400995
57 0.011560 0.106036 -0.045454 -0.087109 -0.030353 0.318481 -0.102776 -0.098938 -0.038079 0.199468 -0.206611 0.227680 -0.165656 0.032466 0.143159 -0.295424 0.013144 0.227074 -0.040540 0.100061 -0.217431 0.072785 -0.070412 -0.270860 0.109692 0.004342 -0.026145 0.197523 0.207159 -0.103149 -0.178746 -0.032215 0.102002 0.255864 -0.094634 0.154425 0.104460 -0.027190 0.182211 0.017130 0.019240 0.442699 -0.009054 0.009396 -0.160863 0.196629 -0.068028 0.088561 0.072825 -0.041368 -0.064285 -0.033946 0.088074 0.105956 -0.524544 -0.069617 -0.098325 0.118739 -0.075688 -0.141841 0.069237 -0.177011 0.065489 0.046687 0.131999 0.172037 -0.199619 -0.061522 0.108816 -0.164954 -0.191207 0.014426 0.330158 -0.295401 0.364561 0.160774 -0.106054 -0.168628 0.212644 -0.030097 0.375261 0.151973 -0.221433 0.216119 -0.209046 0.235876 0.160891 -0.056295 0.379437 0.219274 0.316856 0.117611 -0.112380 0.267531 -0.192161 0.044507 0.174808 -0.164468 -0.050681 -0.273009 -0.159376 -0.005005 -0.334812 -0.030533 0.047029 -0.076539 -0.112392 0.122288 -0.220783 -0.203873 -0.041121 0.349329 -0.185834 0.298022 -0.237452 0.313882 -0.067399 0.203936 -0.135513 0.023170 -0.012016 0.136389 0.167760 0.208932 0.195090 0.184884 -0.056388 0.428586
142 -0.075545 -0.150761 -0.124304 -0.232050 0.019618 0.021604 -0.193540 -0.018189 0.080721 -0.047594 -0.392787 0.005292 0.016403 -0.165412 -0.007635 -0.087581 0.047380 0.281972 0.082361 0.024586 0.047874 0.178080 -0.018444 0.037146 -0.042204 -0.046460 0.369103 -0.023313 0.014303 -0.040462 0.127441 0.067403 0.145401 -0.311919 -0.239400 0.066604 0.066552 0.087583 0.093257 -0.060580 -0.064384 0.249098 -0.105094 -0.183397 -0.063219 0.188548 0.132017 0.189372 0.178466 -0.094849 -0.226969 -0.029268 0.013408 -0.016669 -0.244144 -0.279333 -0.046735 -0.151762 -0.094539 0.013432 0.035957 -0.061194 0.052569 -0.096578 -0.154558 0.252153 -0.224423 0.117956 0.174784 0.023438 -0.010448 -0.014524 0.164760 0.035668 0.136192 0.076405 -0.171294 -0.087894 -0.080433 -0.142043 0.222764 0.121543 -0.075464 -0.201300 -0.093981 0.168438 0.224725 -0.121127 0.128699 0.025880 0.379411 -0.027395 -0.002865 0.061199 -0.080254 0.020865 0.278745 -0.154150 0.038417 0.112397 -0.164797 -0.036697 -0.128562 0.120746 0.296366 -0.135557 -0.062189 -0.090379 -0.075351 -0.029793 -0.052362 0.301346 -0.021673 -0.046594 -0.110517 0.175728 -0.068507 0.099559 -0.068076 -0.032785 0.116769 0.047906 0.105834 -0.000643 -0.016828 0.150262 -0.121290 0.030137
93 0.028944 0.047151 0.039908 0.020140 -0.038850 0.212493 -0.121932 -0.108885 0.000710 0.182133 -0.218785 0.229292 -0.121480 -0.038940 0.184834 -0.226889 -0.085807 0.211343 -0.029907 0.059210 -0.111707 0.023886 0.021203 -0.178460 0.062793 -0.041762 0.033281 0.127891 0.140631 -0.159555 -0.203054 -0.082023 0.090126 0.181918 -0.049822 0.059427 0.104598 -0.060680 0.135039 0.006899 0.004788 0.460404 0.008697 -0.109189 -0.094530 0.291173 -0.093206 0.085012 0.106143 -0.064508 -0.071185 0.020939 0.083422 0.065485 -0.576456 -0.126753 -0.067071 -0.003595 -0.069107 -0.154651 0.120269 -0.114659 0.104762 0.039195 0.111202 0.141700 -0.204744 -0.079863 0.110000 -0.083623 -0.167235 -0.082944 0.290812 -0.196916 0.327521 0.148843 -0.099231 -0.117356 0.144645 -0.063275 0.322142 0.242857 -0.107487 0.095847 -0.239920 0.176751 0.082775 -0.165005 0.315747 0.229267 0.281714 0.083738 -0.053964 0.263055 -0.126597 0.087509 0.183568 -0.156513 -0.003414 -0.269212 -0.131560 -0.101524 -0.270714 0.080120 0.021659 -0.141451 -0.141412 0.137336 -0.260649 -0.135203 0.014446 0.254346 -0.125480 0.166783 -0.195254 0.381317 -0.043629 0.245893 -0.103880 0.090891 -0.043630 0.245042 0.200082 0.257405 0.202856 0.170291 -0.003911 0.396832
23 0.003030 -0.092326 0.085273 -0.120628 0.041341 0.014754 -0.218225 0.129336 0.122967 -0.037219 -0.128720 0.131936 -0.114656 -0.107101 -0.032548 -0.059875 -0.131596 0.128740 -0.147888 -0.032760 0.126080 0.081412 -0.018830 0.086111 -0.131804 0.172657 0.077353 0.093786 -0.057502 -0.181267 -0.083673 0.025341 0.220218 -0.023531 -0.096983 -0.141595 0.011563 -0.034451 0.265426 0.169264 -0.180989 0.196296 -0.201110 0.065550 -0.056492 0.321606 -0.068502 0.004089 0.003963 -0.111109 -0.044482 0.146530 0.220233 -0.095299 -0.244960 -0.281034 -0.123549 -0.088178 -0.172532 -0.097109 0.047184 -0.131821 0.018175 -0.055344 0.063575 0.174099 0.128791 0.008149 -0.185139 0.059363 0.032707 -0.033754 0.236075 -0.032063 0.172563 0.010661 -0.146187 -0.037759 -0.102802 -0.058050 0.270772 0.090966 -0.059538 -0.046516 -0.241576 0.286032 -0.063241 -0.167476 0.233327 0.082525 0.329027 0.073602 0.033918 0.221473 -0.204743 -0.050239 0.206535 -0.223661 0.177290 -0.040887 -0.290406 -0.069718 -0.224676 0.057178 0.344978 -0.270608 -0.056233 0.097098 0.098566 -0.379860 0.008859 0.257291 0.096390 -0.015972 -0.187081 0.001696 -0.169567 0.238517 -0.027733 0.028211 -0.035643 0.088057 0.135237 0.107641 0.057366 -0.047525 -0.065546 0.091718
60 0.026199 -0.151644 0.054857 0.054137 -0.004247 0.030862 -0.158817 0.134419 0.189109 0.039530 -0.110815 0.214900 -0.039775 -0.085851 -0.121200 -0.057267 -0.034673 0.113544 -0.036263 0.013978 0.144083 -0.086057 -0.005983 0.096824 -0.090340 0.151036 0.045117 0.085320 -0.062805 -0.151855 -0.026156 -0.074330 0.195818 0.081077 -0.018963 0.001558 0.015957 0.019340 0.259419 0.114861 -0.266165 0.327049 -0.309317 0.024999 -0.191425 0.333891 -0.045191 -0.047701 -0.008794 -0.073851 0.002012 0.085056 0.221303 -0.132963 -0.365998 -0.344849 -0.049115 -0.194373 -0.244423 -0.072308 0.015748 -0.098454 -0.037520 -0.071198 0.025920 0.045314 0.049276 -0.027505 -0.260400 0.179939 0.061000 -0.088674 0.217524 -0.019668 0.066598 0.045080 -0.156156 0.015861 -0.026830 -0.037474 0.211504 -0.055968 -0.081693 -0.063890 -0.224097 0.273635 -0.052643 -0.198406 0.108875 0.088700 0.282040 0.111730 -0.071938 0.281313 -0.126734 -0.016105 0.084724 -0.173493 0.112650 0.038374 -0.233911 -0.048190 -0.188502 0.147387 0.446441 -0.238253 -0.034388 0.106042 0.097798 -0.268627 0.008745 0.253706 0.174097 -0.020378 -0.190348 -0.022208 -0.234349 0.103222 -0.092896 0.099395 0.009528 0.088827 0.094952 0.073623 0.188968 -0.099945 -0.081550 0.039749
16 0.084311 -0.030440 0.008295 -0.230335 -0.013286 0.164089 -0.207750 -0.025605 0.147565 0.048133 -0.370265 0.230741 -0.148279 -0.070723 0.113560 -0.312664 -0.109493 0.181294 -0.110530 0.068575 0.042147 0.190514 -0.087431 -0.112419 -0.068922 0.033260 0.330254 0.160985 0.116956 -0.103284 -0.030153 -0.023317 0.138256 0.013409 -0.184868 0.064867 0.117927 0.005846 0.128473 -0.013976 -0.103136 0.391461 -0.049646 -0.042371 -0.083822 0.275817 -0.020102 0.179051 0.070609 0.101552 -0.167407 0.032683 0.109701 -0.005935 -0.273221 -0.198317 -0.217900 -0.075473 -0.048194 -0.080899 0.148032 -0.161753 0.087884 -0.130324 0.062653 0.297816 -0.178902 0.009275 0.064345 -0.005455 -0.004018 -0.022639 0.189795 -0.092668 0.243710 0.107796 -0.133975 -0.217353 -0.009788 -0.082634 0.183535 0.143190 -0.059629 0.038839 -0.268601 0.195147 0.150023 -0.026736 0.220848 0.010792 0.255446 -0.054321 -0.104643 0.193005 -0.155051 0.123352 0.290583 -0.109558 0.057812 0.010699 -0.168140 0.023649 -0.273411 0.196722 0.121899 -0.223502 -0.034909 -0.107568 -0.162414 -0.192669 0.026849 0.174952 -0.130778 0.087426 -0.119854 0.239712 -0.204742 0.225194 -0.000697 -0.008983 0.096713 -0.018930 0.179508 0.100247 0.088864 0.027555 0.030997 0.166823
128 -0.066864 -0.608404 0.011163 -0.211194 0.283565 0.105889 -0.588721 -0.100512 0.252462 -0.390842 -0.625154 0.560382 -0.246506 -0.531009 -0.076942 -0.678547 -0.311994 0.744433 0.010477 0.010095 0.681529 0.225235 0.015939 -0.472930 -0.163568 0.053547 0.644080 0.148125 0.072245 -0.733933 0.117550 0.116024 0.434235 -0.260851 -0.051516 0.255618 -0.158966 -0.004299 0.302578 0.194868 -0.515021 0.910843 -0.615526 -0.246658 -0.130908 0.895121 0.173393 0.148772 0.544186 -0.137636 -0.442214 0.153669 0.270216 0.296147 -0.959679 -0.891026 -0.543856 0.106422 -0.228575 -0.250967 0.020380 -0.226471 0.018951 0.249849 -0.391072 0.124129 -0.471110 0.136621 0.129205 0.230235 0.244283 -0.256371 0.720894 -0.076304 0.595948 0.561989 -0.125411 0.268477 0.633777 -0.377629 0.681320 0.017893 -0.558847 -0.088235 -0.434411 0.620592 -0.089882 -0.280241 0.270472 0.117297 0.540511 0.360614 0.028661 -0.147177 -0.377511 0.113989 0.287545 -0.636994 0.390385 -0.127879 -0.686579 0.604388 -0.160036 0.101549 0.577783 -0.443715 0.189840 0.371463 -0.168927 -0.809990 -0.330560 0.686251 -0.014400 0.095316 -0.488664 0.349041 -0.249544 0.692721 -0.331626 0.012032 0.231547 0.390772 0.260554 -0.043266 0.449820 0.295379 -0.099485 0.405720
107 -0.023101 -0.029832 0.137478 -0.076947 0.292982 -0.014314 0.075587 -0.017911 -0.106172 -0.260945 -0.260850 0.239510 -0.002373 -0.307461 -0.048588 0.061982 -0.156139 0.504712 0.126243 0.081904 0.530734 0.048336 0.033220 -0.360754 0.046086 -0.106304 0.042455 0.251699 -0.249413 -0.546186 0.162995 0.291524 -0.017495 -0.374321 0.097838 0.058821 -0.021479 -0.073937 0.150727 0.058886 -0.377097 0.043302 -0.123342 0.089197 0.106566 0.199903 0.182671 0.076316 0.311587 -0.271787 0.251616 -0.117267 0.300156 0.311205 -0.067414 -0.097274 -0.346223 0.218345 -0.133053 -0.326443 -0.354526 0.151775 -0.192844 0.108668 -0.403486 -0.035599 -0.000338 -0.014596 0.309965 -0.252059 0.040077 -0.124098 0.158708 -0.087593 0.023906 0.254456 0.155176 0.028088 0.540500 -0.324932 0.477784 -0.228438 -0.250688 0.063833 0.092455 0.179858 -0.118374 -0.062556 0.194846 0.005058 0.229140 0.188524 0.218429 0.087562 -0.220735 0.045885 0.068117 -0.072746 0.049384 -0.154911 -0.317386 0.387342 0.289621 -0.300760 0.062000 0.145803 0.465824 0.381307 -0.204789 -0.033744 -0.257798 0.297455 0.293338 0.103959 -0.286737 0.328916 -0.199131 0.446442 -0.286655 -0.000035 -0.003116 0.004612 0.036139 0.119893 0.117122 0.243449 -0.175443 0.175400
54 -0.267564 -0.379815 0.086859 0.031523 0.167109 0.038778 0.162418 -0.116624 0.207726 -0.569452 -0.165714 0.198212 -0.242846 -0.077732 -0.199343 -0.115648 -0.103629 0.089798 0.394109 -0.209685 0.493287 0.046079 0.009418 0.020607 -0.194418 -0.129135 0.055656 0.092040 -0.253713 -0.293550 0.076580 0.009157 0.205875 -0.298212 0.204280 0.142095 0.011099 -0.184776 0.042787 0.038384 -0.089379 0.369153 -0.056504 -0.228293 0.014796 0.261929 0.188031 -0.189983 0.240795 -0.080922 -0.355502 -0.193481 0.185019 0.018544 -0.500366 -0.481425 -0.144942 0.208820 -0.162307 0.204156 -0.205601 0.036113 -0.053719 0.077540 -0.396022 0.019257 -0.365669 0.009919 0.082268 0.148160 0.319397 -0.094926 0.294611 0.196734 0.105232 0.146026 0.061219 0.222571 0.047280 -0.166004 0.030708 -0.167617 -0.308708 -0.174857 0.112390 0.195778 -0.147469 -0.337781 0.128141 0.037258 0.139515 0.257930 -0.191646 -0.335743 0.215420 0.156963 -0.077554 -0.150531 0.063102 0.104199 0.005292 0.248645 0.250797 0.158102 0.618965 -0.024823 0.344041 0.022700 -0.350283 -0.033141 -0.125164 0.116758 0.063125 0.037923 -0.327400 -0.106031 -0.081894 -0.050117 0.036556 -0.006504 0.291645 0.289644 0.012532 0.116770 -0.028282 0.324983 0.025264 0.352119
42 -0.082326 -0.001179 0.009011 -0.209722 0.094607 0.031912 -0.341882 0.019509 0.272173 -0.190679 -0.232688 0.124731 -0.155715 -0.217540 0.027749 0.080307 -0.148882 0.235506 0.060994 -0.125677 0.338069 0.336478 -0.124908 0.166680 0.000156 -0.032904 0.248074 0.003981 -0.241456 -0.193993 -0.062127 0.072802 0.133759 -0.368348 -0.058556 -0.211858 0.050425 -0.072570 0.226488 0.053128 -0.149098 0.106100 -0.162845 -0.031526 0.205778 0.304649 0.049767 0.061925 0.157952 0.005502 -0.054350 0.032548 0.282538 -0.046000 0.037682 -0.232014 -0.244125 0.058405 -0.095335 -0.067896 -0.064540 -0.065938 -0.050019 -0.115764 -0.007432 0.386232 0.117186 0.014661 0.006799 -0.016698 0.092320 -0.131883 0.140529 0.272080 0.220433 0.075965 -0.068163 -0.029117 -0.152507 -0.198767 0.123594 0.137557 -0.192470 -0.272218 -0.118874 0.238073 -0.023593 -0.275386 0.238434 0.100998 0.379249 -0.090787 0.107831 0.040081 -0.192615 -0.054450 0.169632 -0.205121 0.203019 -0.025644 -0.197561 -0.183791 -0.111821 -0.037719 0.267727 -0.294122 -0.110518 0.073731 -0.004017 -0.185202 0.048294 0.296045 0.242662 -0.147582 -0.225647 0.171823 -0.013361 0.325387 0.058969 0.011558 0.031146 0.055970 0.163178 -0.014382 -0.025824 0.096496 -0.064400 0.192523
38 0.056509 -0.166185 0.071706 0.032088 0.110031 -0.175025 -0.140788 0.022666 0.158896 -0.039677 -0.271170 0.250509 -0.069623 -0.060537 0.045177 0.051962 -0.288104 0.246934 0.081022 0.135145 0.234259 -0.077310 0.135565 0.056206 -0.110446 0.303622 0.181146 -0.052734 -0.112194 -0.356693 0.229468 -0.014663 0.150587 -0.016040 0.230094 0.017148 -0.077115 -0.059922 0.302198 0.232055 -0.336118 0.184377 -0.176187 -0.033441 -0.096765 0.331097 -0.015668 0.004259 -0.032753 -0.111098 0.060563 0.123861 0.246129 -0.246377 -0.152555 -0.412444 -0.110959 -0.270827 -0.152835 -0.212649 -0.093436 0.143232 0.138678 0.112431 -0.159272 -0.060426 -0.077815 -0.003141 0.129351 0.295037 -0.017970 -0.054690 0.200528 -0.096266 0.118056 0.111954 -0.204912 0.205323 0.040976 0.117453 0.183299 -0.014459 0.042093 -0.041616 -0.157120 0.176095 0.104146 -0.158156 -0.153203 0.164533 0.195574 0.041983 -0.085186 0.240546 -0.125365 -0.000094 0.044536 -0.011643 0.110980 0.065746 -0.222331 0.192065 -0.039491 -0.005157 0.412345 -0.153462 0.333626 0.207792 -0.050575 -0.016601 0.196155 0.374588 -0.037083 -0.079535 -0.249087 0.106866 -0.365011 -0.052266 -0.105344 0.029327 0.185283 0.057397 0.236448 0.189513 0.280823 -0.068704 -0.062171 0.019132
10 0.117639 -0.016763 0.120499 -0.134209 0.026468 0.094079 -0.184506 0.149822 0.152641 -0.000044 -0.204078 0.248690 -0.155836 -0.120631 0.001392 -0.192054 -0.209091 0.108627 -0.229605 0.041968 0.112370 0.033093 -0.028226 0.034770 -0.195883 0.181320 0.281827 0.181395 0.102422 -0.186819 -0.005592 0.024819 0.176592 0.084016 -0.211619 -0.047789 0.063851 -0.107614 0.230594 0.199795 -0.172373 0.273321 -0.067097 0.181380 -0.072372 0.352584 -0.140833 0.047407 0.021402 0.014273 -0.047640 0.064542 0.212431 -0.134209 -0.243324 -0.240184 -0.290503 -0.116262 -0.101196 -0.129398 0.166012 -0.176386 0.080737 -0.042077 0.047218 0.243671 -0.013239 -0.045596 -0.110424 0.046175 0.066721 -0.047916 0.324251 -0.084884 0.218922 0.077640 -0.182711 -0.145061 -0.057845 -0.082513 0.219589 0.077310 -0.036124 0.062098 -0.249942 0.221140 -0.030022 -0.049637 0.231410 -0.071890 0.257455 -0.036178 -0.049837 0.280631 -0.169287 0.078776 0.207935 -0.176979 0.181473 0.075617 -0.319213 0.053737 -0.234519 0.156395 0.218837 -0.322651 0.130775 0.040410 -0.082078 -0.318229 0.064993 0.119867 0.055498 0.044754 -0.136415 0.064399 -0.351763 0.298779 -0.033823 -0.036731 0.021271 -0.003688 0.191951 0.121936 0.093824 -0.112481 -0.007449 0.097957
30 -0.029534 -0.084759 -0.196714 -0.202619 -0.027846 0.222559 -0.331138 -0.114934 0.267305 -0.326345 -0.282949 0.144250 -0.266597 -0.049914 -0.270991 -0.427480 -0.040353 0.338067 0.050905 0.046107 0.228880 0.264971 -0.147513 -0.184826 -0.125041 0.008344 0.562200 -0.054535 0.025919 -0.046042 0.105493 -0.150284 0.260562 -0.128073 -0.015783 0.388715 -0.199461 0.092664 0.100556 -0.031479 -0.087306 0.278442 -0.266191 0.033355 -0.081912 0.064814 0.155215 0.071372 0.241184 0.247291 -0.232227 -0.145830 0.033531 0.032928 0.117628 -0.301327 -0.350993 0.041274 0.075453 0.171752 -0.146707 -0.143581 0.043423 -0.013624 -0.040493 0.268081 -0.243136 -0.036215 -0.018044 0.228117 0.191202 0.081114 0.115298 0.013443 0.207607 0.286723 0.006225 -0.100230 0.141866 -0.139539 -0.031770 -0.076030 -0.265565 -0.023691 -0.017569 0.148798 0.210998 -0.005607 0.084790 0.012150 0.313856 0.015472 -0.190908 -0.184948 0.056793 -0.050486 0.018765 -0.023664 0.112615 0.152996 0.057944 0.364246 -0.253213 0.039311 0.312438 -0.122783 -0.000605 -0.279402 0.068694 -0.323105 -0.104506 0.328200 -0.051014 0.145957 -0.195736 -0.020975 0.025263 -0.065854 -0.021254 0.035551 0.261146 -0.046236 0.046378 -0.179789 0.118883 0.119804 -0.055314 0.145694
4 -0.114241 -0.153290 0.136334 -0.062549 0.217674 0.058936 0.043726 0.140495 0.022335 -0.407299 -0.026629 0.101166 -0.077752 -0.356427 -0.096193 -0.225479 -0.038520 -0.027520 0.096605 -0.199085 0.229874 -0.003391 0.017794 -0.063894 -0.151130 -0.037232 0.028052 0.225146 0.129089 -0.231046 -0.085916 0.089761 -0.025656 -0.100054 -0.175847 -0.045471 -0.036626 -0.360123 0.060651 0.088886 0.001535 0.117779 0.133706 0.050424 -0.023227 0.185292 -0.138240 -0.217731 0.292200 -0.207371 -0.208839 -0.230944 0.001238 0.158686 -0.623689 -0.178744 -0.153908 0.402588 -0.106737 0.132575 -0.003738 -0.116529 -0.070407 0.162256 -0.234292 0.157405 -0.205318 0.123107 -0.035564 -0.095043 0.249286 -0.122494 0.426722 -0.055837 0.172241 0.143606 0.159724 0.158491 0.242930 -0.265921 0.253997 -0.100134 -0.374011 -0.050485 0.166047 0.189706 -0.308571 -0.183496 0.341383 -0.072739 0.073046 0.185603 -0.133757 -0.287377 -0.101316 0.192201 0.020450 -0.323534 0.112517 0.066284 -0.247694 0.211862 0.279246 0.016726 0.249238 -0.016798 0.236614 0.235281 -0.357168 -0.212955 -0.156550 0.041808 0.120068 0.054985 -0.240078 -0.047522 -0.022764 0.330733 -0.102119 -0.074044 0.052853 0.239393 -0.077958 0.096228 -0.093713 0.350422 0.059814 0.326397
34 0.030891 -0.303899 0.229139 0.184378 0.344252 -0.119171 0.100226 -0.145879 -0.190028 -0.149051 -0.244124 0.428730 0.091604 -0.203634 -0.000735 -0.024369 -0.315623 0.422543 0.092254 0.130950 0.641293 -0.132794 0.119957 -0.396374 0.095376 -0.126369 -0.136285 0.135951 -0.221974 -0.646909 0.184722 0.279112 -0.009147 -0.190567 0.216411 0.103149 0.012306 0.003554 0.051988 0.087305 -0.473321 0.254266 -0.227470 -0.087739 0.086559 0.446609 0.190340 -0.062967 0.236997 -0.212064 0.171965 0.130389 0.372868 0.373178 -0.353092 -0.244031 -0.243113 0.060786 -0.124455 -0.496616 -0.155687 0.202483 -0.171250 0.253977 -0.439689 -0.430343 -0.149192 -0.081004 0.366376 -0.096369 -0.015886 -0.297930 0.241768 -0.028712 0.008412 0.270280 0.036658 0.258136 0.609666 -0.123665 0.329345 -0.240709 -0.149520 0.068608 -0.047009 0.104211 -0.201923 -0.054903 -0.104043 -0.042097 -0.052540 0.318573 0.286113 0.070902 -0.186398 0.118189 -0.156291 -0.186774 0.159821 -0.188937 -0.354000 0.449163 0.345060 -0.283827 -0.171031 0.036399 0.435816 0.522269 -0.175779 -0.053667 -0.230251 0.067273 0.221888 0.075707 -0.198994 0.320692 -0.271047 0.533206 -0.262827 0.038126 -0.018246 0.106432 0.072265 -0.058751 0.274431 0.086466 -0.047251 0.106899
24 0.069537 -0.124867 0.072384 -0.022568 -0.020663 0.129286 -0.192010 -0.047675 0.087878 0.006933 -0.314014 0.248834 -0.113849 -0.041118 0.033833 -0.280952 -0.222252 0.126380 -0.101452 0.047252 0.137015 0.058062 -0.059205 -0.008794 -0.107532 0.068880 0.169938 0.111257 0.095972 -0.174029 -0.069326 -0.040391 0.186603 0.106434 -0.191696 0.073815 0.105580 0.002655 0.152290 0.047058 -0.133557 0.385474 -0.158971 -0.033949 -0.059806 0.405307 -0.112343 0.030379 0.009241 0.049376 -0.120952 0.084633 0.188953 -0.028281 -0.419332 -0.242474 -0.142482 -0.156398 -0.059741 -0.106923 0.184181 -0.107267 0.115320 -0.051027 0.067290 0.130821 -0.195496 -0.093238 0.018768 0.107439 -0.033147 -0.072767 0.286444 -0.028149 0.169487 0.086433 -0.223021 -0.147866 -0.029786 0.031915 0.096071 0.141865 -0.029354 0.046354 -0.236047 0.129250 0.037463 -0.139930 0.226324 -0.003355 0.257830 -0.002801 -0.036503 0.233603 -0.054732 0.103175 0.085267 -0.114203 0.151815 -0.065636 -0.185253 0.009575 -0.321137 0.161685 0.142422 -0.288673 -0.104816 -0.082059 -0.064767 -0.234875 0.047734 0.135481 -0.056585 0.107246 -0.179641 0.114171 -0.198908 0.231530 0.028241 0.038774 0.053250 0.045331 0.219194 0.027283 0.191338 -0.018976 -0.016705 0.151267
119 0.150328 -0.148794 0.038964 0.003721 -0.064670 0.207862 -0.267917 -0.054237 0.260845 -0.123102 -0.370351 0.352559 -0.195397 -0.069174 -0.086697 -0.515209 -0.175282 0.068461 -0.025056 0.075885 0.236663 0.082891 -0.198951 0.004993 -0.129614 0.062347 0.323174 0.102990 0.152035 -0.083305 -0.056542 -0.219972 0.161525 0.258509 -0.162087 0.225601 0.036721 0.008106 0.157153 -0.034354 -0.179175 0.474428 -0.254338 0.049570 -0.088235 0.381075 -0.171130 -0.091468 0.027323 0.330814 -0.192032 -0.014494 0.201694 -0.070077 -0.320199 -0.283572 -0.265814 -0.082145 -0.034392 0.054186 0.130908 -0.176686 0.088359 -0.118324 0.131760 0.193360 -0.315928 -0.158760 -0.151242 0.289353 0.110712 -0.154661 0.260402 0.036677 0.134084 0.181124 -0.171086 -0.194568 0.043278 -0.010208 -0.191808 -0.011247 -0.138544 0.061619 -0.219957 0.113211 0.013986 -0.110544 0.159791 -0.114559 0.157865 -0.063329 -0.256488 0.163405 -0.035540 0.160058 -0.057622 -0.052607 0.214163 0.127929 -0.115056 0.102452 -0.342102 0.275223 0.150106 -0.307872 -0.115435 -0.238082 -0.104199 -0.280645 0.129627 0.087383 0.002017 0.097958 -0.176554 -0.001147 -0.275018 0.195936 0.088564 0.081577 0.202968 -0.052475 0.213670 -0.149317 0.255408 -0.095056 0.103961 0.164205
153 -0.002565 0.024856 -0.077216 -0.186933 0.001140 0.136065 -0.215136 0.003716 0.184719 -0.241451 -0.241803 0.077918 -0.179125 -0.092560 -0.156109 -0.208368 -0.162393 0.287827 0.027317 0.106350 0.156544 0.101244 -0.021672 -0.053103 -0.157925 0.108781 0.540792 -0.000745 0.053264 -0.115796 0.165496 0.018117 0.242865 -0.200247 -0.089760 0.289352 -0.193317 -0.077295 0.106253 0.077383 -0.105326 0.168755 -0.126874 0.022913 -0.029977 0.099825 0.021252 0.190892 0.175568 0.091129 -0.086606 -0.216472 0.028790 -0.019234 0.078657 -0.300324 -0.382957 -0.078896 0.113706 0.017729 -0.073699 -0.083027 0.116853 0.042393 -0.117369 0.280451 -0.233747 0.008602 0.190340 0.238500 0.194213 0.056160 0.246280 0.019176 0.155193 0.248159 -0.052403 -0.041786 0.092981 -0.152075 0.102204 -0.081605 -0.163247 -0.066944 0.041577 0.098801 0.158162 -0.046318 0.090710 0.016236 0.355961 -0.065372 -0.105322 -0.106839 0.069016 -0.030688 0.082572 0.029453 0.097050 0.193843 -0.024097 0.328944 -0.170411 0.017265 0.356988 -0.117930 0.189805 -0.240226 0.001492 -0.130164 -0.055914 0.283772 -0.071905 0.060419 -0.199774 0.017938 -0.036774 -0.099709 -0.084841 -0.057370 0.239707 -0.019224 0.082762 0.009534 0.150632 0.068969 -0.191957 0.050550
109 -0.125388 -0.346525 0.160127 0.250496 0.254455 -0.006765 0.080117 -0.211649 -0.022512 -0.211842 -0.007414 0.320831 -0.228482 0.007973 -0.064890 -0.196020 -0.131949 0.166170 0.167977 -0.058606 0.380828 0.043058 -0.037257 -0.383026 -0.041342 -0.158345 -0.105284 0.013392 -0.226703 -0.210624 0.023763 -0.079802 0.122289 0.075536 0.336503 0.132118 -0.069992 0.010084 0.007424 0.109705 -0.092671 0.318730 -0.085109 -0.117529 -0.147487 0.305174 0.206177 -0.362008 0.228738 -0.020574 -0.174403 0.091255 0.133603 0.183891 -0.383998 -0.323257 -0.138397 0.310329 -0.200678 -0.051022 -0.129965 0.032851 -0.161406 0.280319 -0.264054 -0.361362 -0.156952 0.051185 0.000356 -0.076799 0.074254 -0.065748 0.020936 -0.034139 0.178776 0.180012 0.096599 0.362482 0.237359 -0.085322 0.095492 -0.131342 -0.167793 0.070646 -0.053087 0.189928 -0.155510 -0.049521 -0.023783 -0.029823 -0.108314 0.378544 -0.024347 -0.165150 0.013607 0.149463 -0.126356 -0.293812 0.148281 -0.090164 -0.098281 0.409287 0.263495 -0.129870 0.169637 0.071664 0.342362 0.389702 -0.154609 -0.345168 -0.187406 0.121367 0.017625 0.168598 -0.139821 0.149824 -0.113458 0.166711 -0.026272 0.023794 0.247187 0.209896 -0.070475 -0.040088 -0.024420 0.207945 0.254335 0.333763
138 0.008694 -0.218325 -0.321451 -0.076344 -0.072956 0.193626 -0.641817 -0.279343 0.262790 0.036319 -0.350883 0.218303 -0.086321 -0.113008 -0.068123 -0.463193 0.052617 0.346451 0.051778 0.030143 0.087924 0.319259 -0.189928 -0.202021 0.138064 -0.126205 0.465337 -0.235092 0.194562 0.024938 -0.043984 -0.188477 0.159274 -0.003969 -0.042229 0.242019 -0.099791 0.331555 0.060730 -0.204127 -0.064477 0.465421 -0.436709 -0.195663 -0.100810 0.275012 0.121576 0.086973 0.200942 0.280226 -0.362103 0.142709 -0.008809 0.176222 -0.179793 -0.304181 -0.124213 -0.057180 0.004920 0.033563 0.131212 -0.201117 0.036124 -0.025345 0.104925 0.148026 -0.261141 0.032187 -0.018957 0.202536 -0.060817 -0.132754 0.118548 0.088970 0.291112 0.300199 -0.085394 0.026702 0.170200 -0.070725 -0.055357 0.124692 -0.257854 -0.182149 -0.345832 0.142986 0.223749 -0.025073 -0.099709 0.100792 0.125603 0.013009 -0.045423 -0.146670 -0.128136 -0.040301 0.038436 -0.273935 0.118112 -0.027223 -0.083301 0.005397 -0.358404 0.073208 -0.086674 -0.288194 -0.516406 -0.061021 0.142525 -0.367877 -0.066694 0.280420 -0.077982 0.016535 -0.022189 0.176115 0.126543 0.229689 -0.036821 0.134484 0.116858 0.048542 0.107936 -0.419405 0.216082 0.027170 0.054489 0.143213
101 -0.023164 -0.131087 -0.037493 0.054764 -0.053686 0.090959 -0.141163 0.082731 0.178172 -0.003480 -0.076159 0.230626 -0.090658 -0.047826 -0.143899 -0.179503 -0.012028 0.164329 -0.061516 -0.012092 0.070258 -0.111015 0.057167 0.054706 -0.088863 0.178141 0.047860 0.054523 0.026186 -0.200595 -0.086313 -0.190475 0.133919 0.184724 0.097679 0.076067 -0.004648 -0.023884 0.244811 0.104217 -0.194593 0.404500 -0.232193 0.055308 -0.215227 0.214053 -0.044524 -0.038498 0.006736 -0.062828 -0.064116 0.079382 0.164218 -0.181563 -0.441912 -0.319900 0.016619 -0.146748 -0.183594 0.012689 -0.018633 -0.105343 0.021887 -0.013944 0.087217 0.028109 -0.043172 -0.154787 -0.307631 0.194662 0.031408 -0.028163 0.292590 -0.184457 0.149727 0.101255 -0.098107 -0.083969 0.095717 0.052992 0.255764 0.003904 -0.120735 0.057552 -0.178048 0.243979 0.040165 -0.213179 0.147743 0.236758 0.283214 0.177745 -0.199619 0.249211 -0.084322 -0.030348 0.044388 -0.133306 0.032302 -0.087057 -0.139766 -0.021237 -0.266967 0.200162 0.419187 -0.242880 -0.101785 0.114009 0.024426 -0.251672 0.019194 0.297205 0.098490 0.107344 -0.261403 -0.028043 -0.168933 0.033622 -0.098005 0.171749 -0.041934 0.214952 0.109088 0.150478 0.294850 -0.002618 -0.072451 0.183966
70 0.041406 -0.193689 0.050861 0.063090 0.123064 -0.064280 -0.069777 -0.075395 0.059779 0.079837 -0.187589 0.268537 -0.179390 0.096386 0.063889 -0.077324 -0.205429 0.235291 0.034527 0.130532 0.146678 -0.006143 0.049022 -0.161290 -0.034238 0.125162 0.008965 0.003342 -0.083741 -0.217174 0.156784 -0.025317 0.183551 0.130552 0.242472 0.102676 -0.011620 0.143880 0.186401 0.161065 -0.218730 0.316344 -0.213647 -0.042931 -0.137359 0.289990 0.091607 -0.025582 -0.029798 -0.032283 -0.028447 0.224021 0.223669 -0.056645 -0.193018 -0.326804 -0.066987 -0.145744 -0.183128 -0.228822 -0.022172 0.058158 0.049198 0.170386 -0.081649 -0.207947 -0.083635 0.000895 0.073276 0.112263 -0.097311 0.032757 0.110179 -0.151709 0.171069 0.114903 -0.199597 0.160263 0.045612 0.147596 0.147890 0.001178 0.019348 0.126062 -0.251075 0.183447 0.130289 -0.002879 -0.125137 0.083631 0.088428 0.157925 -0.013220 0.196163 -0.083681 0.021074 0.036536 -0.103643 0.101104 -0.090410 -0.207162 0.224484 -0.120071 -0.036337 0.234171 -0.094937 0.252718 0.226516 0.000732 -0.178133 0.075658 0.286066 -0.133145 0.092941 -0.129995 0.135866 -0.309575 0.012309 -0.069201 0.015460 0.143907 0.047637 0.163431 0.076741 0.177156 -0.068495 0.051320 0.087475
134 -0.017306 -0.210011 0.102525 -0.084122 -0.031536 0.072056 -0.048026 0.083414 -0.004554 0.044412 -0.058661 0.115317 -0.053626 0.028764 -0.026024 -0.201833 -0.026677 -0.051503 -0.159570 0.012775 0.071491 -0.055510 -0.054619 0.025051 -0.071257 0.199522 -0.065278 0.116267 0.036728 -0.105931 -0.045889 0.049865 0.254847 0.132210 -0.079132 -0.002555 0.035729 -0.043803 0.180679 0.160425 -0.186777 0.310048 -0.240331 0.011314 -0.156416 0.343357 -0.101355 -0.010235 -0.063027 -0.038554 -0.109152 0.100623 0.195659 -0.006543 -0.401419 -0.329092 -0.105431 -0.077343 -0.114697 -0.101114 0.112918 -0.158802 0.014809 -0.076297 -0.013166 0.050471 -0.048019 0.028671 -0.142011 0.173289 0.075573 -0.076607 0.287157 -0.055636 0.113103 -0.016426 -0.165214 0.016159 -0.009198 -0.010481 0.204066 -0.101490 -0.091233 -0.005279 -0.226272 0.250158 -0.083527 -0.090961 0.149317 0.048758 0.186774 0.116145 -0.036265 0.125590 -0.174142 0.001099 0.097000 -0.201399 0.111536 0.001089 -0.259780 0.069440 -0.186721 0.111081 0.297835 -0.198131 -0.019320 0.026072 0.075768 -0.390391 -0.088151 0.117886 -0.049721 0.053541 -0.153437 -0.115894 -0.183390 0.131433 -0.023590 -0.043881 0.080332 0.078200 0.115155 0.017203 0.182538 -0.097942 -0.065413 0.051858
68 0.015166 0.085325 -0.043883 -0.081490 -0.005393 0.277839 -0.180367 -0.103924 0.011363 0.210647 -0.269007 0.232078 -0.145202 -0.012039 0.135200 -0.254487 0.027226 0.301462 -0.030382 0.110288 -0.189199 0.132300 -0.069624 -0.255752 0.073672 -0.034636 0.044825 0.181793 0.159419 -0.073984 -0.141521 -0.053907 0.133209 0.195926 -0.121806 0.124305 0.095183 0.048102 0.206263 -0.013916 -0.001545 0.454122 -0.053943 -0.055539 -0.200755 0.237646 -0.019895 0.110123 0.098536 -0.063810 -0.079326 0.010762 0.067287 0.083169 -0.517310 -0.091266 -0.070382 0.038089 -0.141391 -0.130294 0.088291 -0.174617 0.060209 0.040071 0.139429 0.192905 -0.152333 -0.019680 0.077570 -0.186650 -0.212883 0.023560 0.246755 -0.270743 0.330631 0.148141 -0.114402 -0.143996 0.125902 -0.065491 0.372987 0.209038 -0.185733 0.168140 -0.246364 0.270624 0.181063 -0.082313 0.356358 0.209628 0.359059 0.107530 -0.073505 0.296383 -0.181593 0.035143 0.248788 -0.178831 -0.043740 -0.243374 -0.176422 -0.053716 -0.326368 0.004906 0.118462 -0.084405 -0.113852 0.115521 -0.188816 -0.195112 -0.053306 0.406091 -0.140019 0.234786 -0.194176 0.365776 -0.053995 0.199031 -0.136799 0.052367 -0.039119 0.125920 0.145966 0.232156 0.127806 0.198132 -0.068078 0.350302
32 0.078158 -0.381229 0.103030 0.308653 0.241954 -0.029654 0.063336 -0.195412 -0.147716 -0.022938 -0.292788 0.480702 0.241529 -0.181409 -0.058898 -0.115401 -0.220499 0.422051 0.138214 0.186663 0.543351 -0.222780 0.122424 -0.353188 0.163264 -0.200311 -0.084365 0.125709 -0.067081 -0.543097 0.160028 0.239041 0.034608 -0.157818 0.042516 0.286157 0.050430 0.100563 -0.069487 -0.098018 -0.472486 0.456812 -0.314926 -0.324420 -0.067595 0.497537 0.202513 0.032458 0.223294 -0.149295 0.047908 0.057406 0.253273 0.425451 -0.625745 -0.302404 -0.150543 -0.176324 -0.085274 -0.462500 0.047279 0.121934 -0.160251 0.171973 -0.445330 -0.453250 -0.362846 -0.055606 0.399496 0.000301 -0.038157 -0.353281 0.352139 0.021422 -0.123233 0.299898 0.010369 0.234713 0.631269 -0.131546 0.254857 -0.274641 -0.162994 -0.051174 -0.079120 0.057448 -0.128059 -0.125627 -0.199677 -0.058140 -0.039471 0.316895 0.272407 0.047539 -0.069115 0.161180 -0.191790 -0.180509 0.052731 -0.052907 -0.270951 0.315536 0.256379 -0.123917 -0.172815 0.020547 0.226017 0.345421 -0.174562 0.111646 -0.318938 -0.028410 0.194085 0.020206 -0.109902 0.337994 -0.187000 0.444188 -0.299535 0.078168 -0.054761 0.120514 0.010732 -0.169379 0.392043 0.056749 -0.216538 -0.000111
99 0.053098 -0.106544 0.024430 0.083126 0.089957 -0.036718 -0.158941 0.149167 0.274442 -0.062243 -0.151453 0.267105 -0.108554 -0.117003 -0.155777 0.024483 -0.085199 0.252549 0.023510 0.034890 0.144097 -0.072576 0.080802 0.106447 -0.186920 0.161314 0.158695 0.044085 -0.096773 -0.243106 0.060461 -0.137394 0.184865 0.030009 0.099525 0.012245 -0.032200 -0.020514 0.320209 0.169507 -0.279369 0.315317 -0.242790 0.023576 -0.234002 0.295783 0.034589 -0.083558 0.048578 -0.143522 0.010587 0.098698 0.201022 -0.277454 -0.316722 -0.359400 -0.060663 -0.238073 -0.290156 -0.022150 -0.070385 -0.039673 0.019873 0.049725 -0.005258 0.003072 0.065332 -0.067478 -0.232882 0.145154 0.021081 -0.017822 0.201210 -0.116847 0.102215 0.085223 -0.173861 0.045202 -0.028078 -0.002091 0.254162 0.034439 -0.052169 -0.012717 -0.166939 0.295046 0.041510 -0.210563 0.030291 0.142458 0.310706 0.144982 -0.143647 0.340097 -0.053211 -0.010209 0.138408 -0.135633 0.107668 0.070030 -0.183341 0.009743 -0.144947 0.155522 0.586410 -0.227914 0.148235 0.182504 0.014236 -0.159329 0.122058 0.391113 0.213997 -0.043099 -0.244820 0.046706 -0.317561 -0.025154 -0.121704 0.158057 -0.014652 0.121044 0.085515 0.266056 0.126307 -0.036013 -0.046172 0.059229
97 0.047457 0.049386 0.108350 -0.121463 0.052239 0.179379 -0.040532 0.068620 -0.061315 0.045333 -0.090453 0.178804 -0.074769 -0.086990 -0.000071 -0.290019 -0.011580 0.135909 -0.154314 0.065274 0.024872 0.013741 -0.083613 -0.231539 -0.044472 0.015229 0.049357 0.230532 0.130601 -0.104230 -0.098419 0.074525 0.116904 0.164145 -0.179600 0.043404 0.030244 -0.089434 0.150899 0.076540 -0.107326 0.196880 -0.023985 0.132627 -0.140610 0.229364 -0.099937 -0.009571 0.106714 -0.069734 0.032171 -0.073343 0.092770 0.129678 -0.296822 -0.059267 -0.216568 0.093614 -0.084057 -0.093931 0.044729 -0.153694 -0.025653 -0.058621 0.015340 0.176687 0.008232 0.013559 -0.045058 -0.118303 0.039661 -0.047299 0.170464 -0.167332 0.149904 0.068929 0.009205 -0.062152 0.146369 -0.224882 0.281714 -0.019397 -0.128955 0.059519 -0.136883 0.176539 -0.087074 0.008622 0.288411 -0.023436 0.188408 0.079053 0.022269 0.203087 -0.263050 0.077059 0.179629 -0.149872 0.105574 -0.000965 -0.245772 0.078216 -0.110737 -0.018212 0.095774 -0.040449 0.098419 0.128876 -0.115045 -0.345812 -0.140156 0.125896 0.082456 0.102054 -0.106708 0.177269 -0.163266 0.335018 -0.118674 -0.014511 0.010160 -0.007604 0.043969 0.102994 0.000500 0.036073 -0.014884 0.184685
61 -0.018486 0.056790 -0.047217 -0.071688 -0.043055 0.285034 -0.143196 -0.173811 -0.024516 0.216259 -0.275726 0.223825 -0.173349 0.086391 0.147978 -0.266886 -0.002613 0.300850 -0.026884 0.107383 -0.178354 0.127078 -0.066349 -0.283390 0.108373 -0.045840 0.001843 0.143698 0.125153 -0.103979 -0.172490 -0.086684 0.156932 0.197965 -0.050024 0.159890 0.112847 0.067546 0.185404 -0.036677 0.006566 0.486846 -0.054878 -0.100820 -0.176400 0.236734 -0.001527 0.123164 0.079991 -0.050334 -0.095126 0.026147 0.105710 0.105594 -0.511255 -0.120467 -0.053159 0.013960 -0.106480 -0.140164 0.053840 -0.150766 0.082335 0.004941 0.141643 0.173057 -0.199822 -0.066303 0.135084 -0.146214 -0.237715 0.032242 0.237992 -0.258909 0.354127 0.165895 -0.134731 -0.179802 0.129140 -0.018000 0.370895 0.207671 -0.153978 0.160302 -0.279937 0.230493 0.230834 -0.108946 0.358418 0.271447 0.368771 0.132825 -0.065017 0.290151 -0.152886 0.034011 0.223053 -0.141125 -0.053337 -0.295260 -0.111050 -0.053372 -0.381161 0.004215 0.094490 -0.090968 -0.183696 0.065191 -0.177115 -0.209055 -0.048551 0.397871 -0.204861 0.277546 -0.230445 0.387854 -0.020727 0.176295 -0.114488 0.073710 0.013452 0.150186 0.179501 0.222887 0.190044 0.196510 -0.052042 0.412874
22 0.068953 -0.214087 -0.024709 -0.134640 0.058251 -0.155972 -0.298671 0.130574 0.023218 -0.160227 -0.242918 -0.119368 -0.050233 -0.400860 0.132808 -0.130517 -0.316073 0.075555 -0.117394 -0.071204 -0.101916 -0.082854 0.261691 0.224720 -0.242642 0.257830 0.221089 -0.089174 0.344076 -0.324707 0.037030 0.122050 0.014731 -0.099920 -0.302161 -0.100394 -0.080695 -0.151928 0.164623 0.192781 0.019868 0.160057 -0.064375 0.107756 0.161526 0.282879 -0.275780 0.125517 0.081992 -0.244486 -0.236595 0.171921 -0.073039 -0.130027 -0.474896 -0.237998 0.061363 -0.039776 0.039768 -0.071618 0.229133 -0.133035 0.362869 0.363247 0.001323 0.062287 -0.267426 0.030186 0.120025 0.165283 -0.035038 -0.040812 0.591279 -0.144152 0.388009 0.156951 -0.335339 0.023599 0.043685 0.206283 0.298253 0.389802 -0.139223 0.112763 -0.064793 0.089149 -0.034708 -0.137854 0.233693 0.011680 0.325189 -0.025225 -0.014628 -0.035541 -0.034414 0.043559 0.133722 -0.313374 0.281236 -0.234801 -0.370926 0.060476 -0.229464 0.114848 0.080510 -0.398871 -0.041135 0.131391 -0.059629 -0.157822 0.255717 0.281822 -0.206393 0.053967 -0.186345 -0.104745 -0.086237 0.222092 -0.116495 -0.088304 -0.134308 0.346276 0.300121 0.090437 0.213563 0.134075 -0.056858 0.098931
124 -0.114190 -0.387283 -0.081497 -0.150206 0.226763 0.093657 0.119243 0.011265 0.122585 -0.677522 -0.269488 0.180617 -0.115494 -0.206151 -0.296368 -0.281185 0.086602 0.175743 0.298626 -0.155449 0.343491 0.064444 -0.045514 -0.081736 -0.274730 -0.182666 0.156068 0.165065 0.121242 -0.252573 0.135846 0.139310 0.195188 -0.227335 -0.154221 0.202347 0.079694 -0.155775 0.035376 -0.034945 -0.148421 0.229901 -0.033314 -0.146900 -0.066050 0.191879 0.182219 -0.233025 0.260942 -0.153168 -0.347923 -0.255204 0.015322 0.050107 -0.561885 -0.223293 -0.063779 0.168101 -0.110274 0.327417 -0.036127 -0.027409 0.043351 0.039830 -0.364749 0.103378 -0.346509 0.035465 -0.002233 -0.067194 0.226679 -0.078406 0.371485 0.003171 -0.018544 0.114972 0.020036 0.084840 0.156092 -0.203465 0.031675 -0.066133 -0.402654 -0.035177 0.175982 0.149920 -0.078400 -0.161738 0.139333 -0.193752 0.055268 0.221137 -0.145928 -0.276195 0.071844 0.157290 0.102754 -0.215246 0.122266 0.238604 -0.154795 0.227336 0.186018 0.222189 0.482266 -0.000440 0.300541 -0.026570 -0.361301 -0.050598 -0.182687 0.071418 0.186700 -0.023427 -0.227941 -0.142975 -0.217958 0.111441 -0.016368 0.022614 0.072502 0.114983 -0.056483 0.064130 -0.227331 0.337300 -0.077493 0.188914
43 -0.151943 -0.349271 0.030173 -0.061345 0.198685 -0.047591 -0.048429 -0.095107 -0.054046 -0.032331 -0.038937 0.192332 -0.380519 0.202455 -0.000699 -0.330375 -0.205215 0.172293 -0.062615 -0.010739 0.146898 0.110608 0.031032 -0.373020 -0.160529 0.194508 -0.003753 0.081721 0.042258 -0.152142 0.160841 -0.036233 0.312606 0.247316 0.294881 0.169720 -0.155280 0.205562 0.119322 0.228922 -0.105227 0.323164 -0.224552 0.003559 -0.266600 0.230048 0.167836 -0.131877 -0.016473 -0.047958 -0.268990 0.322599 0.100049 0.075806 -0.284347 -0.477109 -0.089750 0.057454 -0.249825 -0.073595 -0.009000 -0.025047 0.032553 0.315891 -0.112070 -0.321040 -0.077529 0.166230 -0.069168 0.086490 0.002925 0.269754 0.089803 -0.293675 0.246013 0.092971 -0.111715 0.272758 0.041538 0.214657 0.164654 -0.054111 -0.031720 0.248187 -0.311551 0.270815 0.095760 0.158335 -0.099620 0.029490 -0.023950 0.327459 -0.038173 -0.128344 -0.096708 -0.007121 0.039998 -0.213797 0.148152 -0.109068 -0.247483 0.546705 -0.170658 -0.128680 0.404272 -0.050601 0.350890 0.234522 0.158582 -0.620631 -0.098470 0.304708 -0.384871 0.254900 -0.112409 -0.073807 -0.217831 -0.024223 -0.031217 -0.082708 0.302212 0.054756 0.023030 -0.049236 0.028446 -0.009345 0.170664 0.160475
88 -0.226778 -0.424754 0.145535 0.092960 0.202704 0.000959 0.156671 -0.100165 0.046722 -0.447719 -0.096838 0.176466 -0.180893 -0.100367 -0.110923 -0.195692 -0.113746 0.007143 0.271287 -0.212616 0.389398 0.017850 0.036144 -0.070699 -0.154182 -0.130468 -0.046951 0.098755 -0.116728 -0.237479 0.019542 0.019582 0.131491 -0.177026 0.083198 0.109448 0.003329 -0.168357 -0.050980 0.049773 -0.006900 0.361494 0.007988 -0.224428 -0.036780 0.275573 0.121799 -0.244140 0.245278 -0.113094 -0.378437 -0.080884 0.090760 0.157969 -0.656924 -0.413232 -0.079992 0.264707 -0.154833 0.132504 -0.065501 -0.019422 -0.069898 0.206656 -0.358275 -0.112578 -0.383171 0.075710 0.082951 0.051037 0.230068 -0.085936 0.308461 0.110896 0.147227 0.124787 0.061377 0.262837 0.107920 -0.115204 0.072917 -0.101448 -0.258139 -0.085143 0.100558 0.175000 -0.211436 -0.251976 0.139213 -0.048773 0.034842 0.297584 -0.116361 -0.362782 0.155206 0.184748 -0.113017 -0.264641 0.093587 0.035803 -0.062921 0.289419 0.269980 0.075240 0.363719 -0.011933 0.264552 0.114767 -0.308304 -0.123290 -0.158544 0.023999 -0.043665 0.106101 -0.229929 -0.087767 -0.007968 0.085522 0.010979 -0.076808 0.219762 0.312249 -0.023073 0.009523 -0.044088 0.339294 0.087434 0.322544
83 -0.063980 -0.286081 0.079869 0.302923 0.145443 0.151112 0.049666 0.000851 0.005618 -0.139332 -0.109641 0.326444 0.134309 -0.258475 -0.259679 -0.259691 -0.063322 0.130878 0.157328 -0.038628 0.301209 -0.195962 0.039773 -0.144026 -0.007669 -0.222782 0.010138 0.176353 0.132678 -0.176659 -0.049800 0.020209 -0.013287 -0.019227 -0.290254 0.283493 0.033287 -0.091382 -0.134697 -0.142059 -0.172373 0.350481 -0.063324 -0.168255 -0.265018 0.339162 -0.014356 -0.175920 0.226910 -0.122746 -0.142263 -0.227561 -0.012566 0.232249 -0.864500 -0.262834 -0.067852 -0.011422 -0.140216 0.017485 0.186640 -0.074927 -0.164734 0.081892 -0.241369 -0.144213 -0.343521 0.014909 0.071825 -0.027862 0.153694 -0.193334 0.416597 -0.004602 -0.160046 0.174643 0.101589 0.133557 0.303424 -0.222055 0.113878 -0.260269 -0.280945 -0.157218 0.108505 0.091039 -0.168414 -0.250862 0.106546 -0.106668 0.069633 0.223271 -0.038433 -0.088867 0.077391 0.255454 -0.192981 -0.216521 0.041359 0.178702 -0.127725 0.127321 0.137562 0.066296 0.178777 -0.021982 0.052082 0.118797 -0.202935 -0.011120 -0.314557 -0.051985 0.275646 0.037008 -0.108027 0.060403 -0.027723 0.272887 -0.187447 0.065529 0.006693 0.149041 -0.198051 -0.113040 0.064964 0.231140 -0.184715 0.129566
155 -0.087192 -0.226006 -0.059459 -0.171364 0.057517 -0.004845 -0.170149 -0.011831 -0.040725 0.004629 -0.374263 0.080867 0.130179 -0.126925 -0.153820 -0.147200 0.046050 0.399090 0.045481 0.087272 0.105318 0.058593 0.026870 -0.148631 -0.149408 -0.136558 0.354270 0.094708 0.085516 -0.041147 0.165647 0.128439 0.200194 -0.262960 -0.403001 0.195057 0.061761 0.197834 -0.002340 -0.136690 -0.189990 0.291209 -0.182976 -0.247921 -0.211187 0.268461 0.256163 0.221105 0.190293 -0.212264 -0.168465 -0.051242 -0.062838 0.136522 -0.420809 -0.301824 -0.030833 -0.251223 -0.179918 0.000965 0.096600 -0.066023 0.008422 -0.131737 -0.206937 0.119904 -0.186011 0.112044 0.157000 -0.136964 0.006354 0.009703 0.117704 -0.009877 -0.039593 0.073796 -0.116468 -0.044973 -0.011422 -0.259183 0.317156 0.055736 -0.016096 -0.176704 -0.167007 0.153435 0.190515 -0.072769 0.172064 -0.097453 0.407443 0.096620 0.131495 0.170639 -0.099694 0.010301 0.297915 -0.130348 0.085231 0.178824 -0.202694 0.044178 -0.161907 0.084824 0.350390 -0.045875 0.010351 -0.115343 0.006048 -0.160248 -0.279282 0.251572 0.120375 -0.007778 -0.027694 0.250008 -0.048292 0.232267 -0.207100 0.040003 0.057933 -0.071778 -0.064861 -0.012878 -0.096745 0.117977 -0.234992 -0.137401
3 -0.067744 -0.142388 0.172558 -0.026333 0.252891 0.056648 0.024482 0.196949 -0.061737 -0.362065 -0.009845 0.194083 -0.018292 -0.447578 -0.153525 -0.293436 -0.023973 0.095203 0.038890 -0.107385 0.245070 -0.099197 0.054604 -0.224728 -0.155762 -0.044003 0.112552 0.283807 0.229753 -0.283157 -0.036276 0.126674 -0.083626 -0.004125 -0.204075 0.014159 -0.093863 -0.400612 0.040025 0.118012 -0.119840 0.075371 0.136775 0.121503 -0.135760 0.207893 -0.135775 -0.215173 0.339531 -0.247346 -0.054629 -0.268299 -0.067522 0.194916 -0.631543 -0.122217 -0.257006 0.416000 -0.117595 0.079705 -0.008751 -0.100359 -0.103474 0.218644 -0.282840 0.049907 -0.131131 0.114643 -0.029092 -0.179272 0.260338 -0.143305 0.410943 -0.174334 0.095621 0.185583 0.240414 0.196646 0.451569 -0.388466 0.349797 -0.186656 -0.385276 0.005379 0.200783 0.191029 -0.337664 -0.082295 0.278205 -0.109323 0.027391 0.201699 -0.093461 -0.194191 -0.201666 0.192773 -0.003188 -0.293918 0.135324 0.099886 -0.316500 0.353539 0.329936 -0.078850 0.194460 0.065126 0.379016 0.373656 -0.344497 -0.251025 -0.253416 0.048793 0.248582 0.039925 -0.200739 0.047297 -0.079624 0.418339 -0.239534 -0.042298 -0.006147 0.173350 -0.161736 0.116926 -0.081415 0.320569 0.008247 0.259180
66 -0.086686 -0.246293 0.051392 -0.028889 0.034730 0.077266 0.041772 -0.090374 -0.074700 -0.022680 -0.303072 0.141366 0.041865 0.086980 -0.134125 -0.121838 -0.024820 0.293117 0.050533 0.099052 0.118874 0.006601 0.002615 -0.132832 -0.135124 -0.122677 0.106170 0.149370 -0.018316 -0.079516 0.125391 0.119067 0.339105 -0.151148 -0.315380 0.257370 0.141842 0.126224 0.030072 -0.017281 -0.167947 0.362565 -0.137113 -0.258660 -0.241614 0.341580 0.209895 0.087041 0.071318 -0.169362 -0.147840 -0.029576 0.064170 0.093264 -0.513213 -0.295714 -0.058097 -0.242384 -0.165366 -0.033296 0.138050 -0.066775 0.044333 -0.080723 -0.201419 0.002494 -0.223739 0.026011 0.179430 -0.103593 -0.043435 0.027468 0.200399 -0.014554 -0.053008 -0.026661 -0.178093 -0.048630 -0.090419 -0.137337 0.238660 0.027233 -0.022783 -0.048148 -0.103953 0.168911 0.143481 -0.126852 0.207980 -0.065771 0.375321 0.174108 0.103614 0.203777 0.068002 0.023331 0.197150 -0.102449 0.053329 0.096184 -0.102223 0.067743 -0.171129 0.087875 0.383627 -0.025798 0.084531 -0.151900 -0.010318 -0.101107 -0.270954 0.193743 0.037354 0.088641 -0.082746 0.146824 -0.091299 0.080619 -0.102141 -0.015866 0.055909 0.002979 -0.005071 0.074896 -0.089524 0.131489 -0.266652 -0.024779
94 -0.174218 -0.255694 -0.030510 0.097165 -0.124220 0.136887 -0.174669 -0.070475 0.163405 -0.160881 0.089949 0.278046 -0.212214 0.082558 -0.257768 -0.240082 -0.115306 0.140636 -0.154496 -0.215750 0.314031 0.022565 0.053955 0.044146 -0.056492 0.114999 -0.001852 -0.014988 -0.136864 -0.283940 -0.226297 -0.295696 0.225735 0.129238 0.311536 0.067217 -0.019662 -0.044983 0.131621 0.132791 -0.168010 0.429626 -0.233063 -0.016853 -0.122061 0.210958 0.085255 -0.120241 0.021079 0.094454 -0.191062 0.186346 0.233537 -0.136977 -0.361448 -0.352587 -0.047657 -0.059419 -0.059402 0.096233 -0.032951 -0.133572 -0.071731 -0.070134 0.095495 -0.011723 0.045197 -0.338548 -0.460551 0.206627 0.111905 -0.033559 0.276959 -0.071915 0.199641 0.086276 0.065679 -0.119398 0.111297 0.086030 0.133368 0.050674 -0.146624 -0.007205 -0.138072 0.243795 -0.025584 -0.336194 0.180113 0.332891 0.199111 0.291143 -0.133244 0.024332 0.012056 -0.110274 -0.148406 -0.135672 0.080884 -0.252100 0.023312 -0.027812 -0.329882 0.195669 0.306908 -0.346653 -0.328984 0.067640 0.162192 -0.442579 -0.113755 0.111544 0.144408 0.173500 -0.284993 -0.118320 0.068560 0.104649 0.070448 0.233115 -0.108258 0.348794 0.091400 -0.040153 0.317813 0.072844 -0.067816 0.356580
165 -0.448766 -0.837633 0.195307 -0.467666 0.090460 -0.470975 -0.784394 -0.236836 0.132202 -0.268549 0.095067 -0.137904 0.234246 -0.688242 0.312131 -0.094491 -0.268190 0.336935 -0.530606 -0.364411 0.886796 0.056282 0.402372 -0.233565 -0.033756 0.415659 0.400257 -0.270220 -0.398481 -1.150747 0.297049 0.478448 0.125272 -0.745257 0.729028 -0.484028 -0.461374 -0.322889 -0.016169 0.555944 -0.402852 0.429643 -0.661584 -0.504111 0.497958 0.518624 0.350540 0.857875 0.413502 -0.263662 -0.222977 0.791605 -0.034814 0.407711 -0.124305 -0.721938 -0.312569 0.491776 0.249426 -0.513508 -0.147909 -0.052678 -0.027721 0.449639 -0.537311 -0.154838 0.081299 0.084278 0.054275 0.508248 0.537121 -0.473335 0.624562 0.278680 0.832084 0.164664 0.284556 0.770659 0.983872 -0.244530 1.108073 0.169509 -0.392844 -0.171637 -0.418427 0.572645 -0.553902 -0.309190 0.006405 0.678020 0.156934 0.425264 0.314340 -0.965899 -0.492011 -0.569708 0.182475 -0.684532 0.227225 -0.999240 -0.537764 0.638301 0.298876 0.067593 -0.003042 -0.609333 -0.060346 0.712349 0.406776 -0.868089 -0.507215 0.316916 -0.324006 -0.196662 -0.226436 -0.031524 0.625197 0.561803 -0.314816 -0.186276 -0.087188 1.003631 0.366160 -0.172679 1.028732 0.155824 -0.115211 -0.076243
166 -0.447129 -0.832647 0.183357 -0.465718 0.089523 -0.460854 -0.768456 -0.242932 0.126965 -0.275969 0.091649 -0.135175 0.227653 -0.676478 0.308419 -0.116497 -0.256165 0.332388 -0.520749 -0.356775 0.865482 0.059791 0.390686 -0.239652 -0.039180 0.395281 0.398344 -0.263712 -0.373508 -1.117734 0.297315 0.471977 0.116482 -0.719774 0.713736 -0.458149 -0.459851 -0.310172 -0.028850 0.540364 -0.379417 0.425148 -0.641623 -0.498617 0.476144 0.501996 0.351633 0.839325 0.415312 -0.263501 -0.240104 0.774559 -0.048601 0.408285 -0.139323 -0.703530 -0.303872 0.497314 0.250474 -0.498365 -0.137608 -0.060793 -0.027104 0.446425 -0.530814 -0.153288 0.065924 0.087032 0.058708 0.492731 0.531683 -0.463096 0.620223 0.258283 0.826724 0.163759 0.285829 0.767609 0.977573 -0.245706 1.092120 0.161943 -0.400783 -0.161652 -0.407350 0.567473 -0.537135 -0.286745 0.012932 0.664454 0.142972 0.429653 0.294139 -0.969629 -0.486517 -0.555489 0.185546 -0.678534 0.218825 -0.977001 -0.527797 0.642652 0.299421 0.073122 -0.006718 -0.594309 -0.053510 0.700716 0.389773 -0.862097 -0.507840 0.314998 -0.330170 -0.183687 -0.223078 -0.025866 0.620572 0.556959 -0.310856 -0.192041 -0.073866 0.987419 0.357345 -0.178210 1.005402 0.154909 -0.104758 -0.074857
160 -0.063209 -0.606437 0.043181 -0.210477 0.290558 0.110726 -0.622043 -0.112266 0.248295 -0.384349 -0.646220 0.539751 -0.216867 -0.493048 -0.077644 -0.697228 -0.315892 0.736787 -0.033317 0.020411 0.689972 0.251668 0.027360 -0.461574 -0.187365 0.070785 0.633537 0.135186 0.055373 -0.724125 0.127304 0.125408 0.428438 -0.250103 -0.050904 0.269023 -0.189694 0.029843 0.285100 0.180519 -0.512698 0.904398 -0.575828 -0.231967 -0.111982 0.901334 0.168517 0.147915 0.559394 -0.103192 -0.464376 0.185316 0.277664 0.303927 -0.905254 -0.872793 -0.504975 0.064352 -0.210737 -0.250395 0.039736 -0.225534 -0.001313 0.242789 -0.385562 0.111006 -0.471313 0.088942 0.097709 0.217352 0.216887 -0.261999 0.755659 -0.118877 0.610641 0.530532 -0.138910 0.236735 0.625239 -0.357521 0.681828 0.034676 -0.545530 -0.061193 -0.425869 0.605226 -0.070418 -0.279558 0.271019 0.131025 0.547598 0.378410 -0.019575 -0.153928 -0.382136 0.111186 0.281174 -0.628145 0.377139 -0.129591 -0.692487 0.585778 -0.175507 0.093236 0.518743 -0.430413 0.171904 0.373583 -0.165744 -0.823421 -0.337119 0.671915 -0.013937 0.107822 -0.476853 0.333406 -0.247668 0.690513 -0.315423 0.032954 0.220362 0.391890 0.258823 -0.060842 0.471058 0.307026 -0.091987 0.363915
161 -0.054203 -0.597889 0.047164 -0.204642 0.285129 0.110218 -0.616823 -0.110369 0.242740 -0.381039 -0.643471 0.531714 -0.203540 -0.494560 -0.077946 -0.687185 -0.316146 0.732346 -0.036335 0.018626 0.685184 0.242004 0.033155 -0.450844 -0.185865 0.061246 0.621438 0.128518 0.052844 -0.722341 0.128041 0.128946 0.416830 -0.249121 -0.056765 0.260334 -0.190450 0.031910 0.274359 0.178637 -0.503935 0.889150 -0.565034 -0.230424 -0.104485 0.888269 0.164392 0.147355 0.557378 -0.101534 -0.455421 0.182278 0.271462 0.301298 -0.887341 -0.852961 -0.503934 0.061866 -0.200276 -0.248559 0.042778 -0.224086 -0.005863 0.239482 -0.382047 0.107303 -0.468208 0.085044 0.098605 0.212921 0.214026 -0.262410 0.744816 -0.116157 0.597083 0.523850 -0.137308 0.227041 0.626387 -0.362384 0.675974 0.034143 -0.537558 -0.064261 -0.415465 0.597834 -0.079730 -0.274632 0.268932 0.127606 0.538365 0.377906 -0.016670 -0.153879 -0.384616 0.112957 0.281948 -0.614953 0.366548 -0.133145 -0.686119 0.579441 -0.166670 0.094581 0.499624 -0.419783 0.171599 0.368720 -0.167745 -0.802034 -0.339219 0.651168 -0.005462 0.101321 -0.462561 0.329407 -0.236529 0.692007 -0.315895 0.030585 0.211105 0.390215 0.248253 -0.066877 0.466125 0.305116 -0.093208 0.350697
46 -0.052095 -0.161296 -0.019559 -0.156241 -0.032160 0.115930 -0.156069 0.054547 0.062450 0.130223 -0.097529 0.077086 -0.093628 0.102450 -0.054292 -0.171746 0.033191 0.080349 -0.102516 0.099012 -0.007394 0.029868 -0.095865 -0.028627 -0.007873 0.229508 0.075027 0.048561 0.043835 -0.022013 0.044565 0.048653 0.354199 0.064308 -0.045021 0.117740 -0.084448 0.115150 0.235290 0.125122 -0.218044 0.319789 -0.369015 -0.003144 -0.242040 0.274902 -0.013306 0.116892 -0.076327 -0.022614 -0.096885 0.071473 0.150925 0.038728 -0.201311 -0.408590 -0.150902 -0.161979 -0.139071 -0.115735 0.044644 -0.195687 0.023828 -0.083783 -0.018379 0.106905 -0.029598 0.128776 -0.061475 0.237591 0.060456 0.031042 0.227566 -0.062791 0.151585 0.042897 -0.193302 0.038312 -0.040646 -0.034352 0.246332 -0.181374 -0.125581 -0.052902 -0.297797 0.297596 0.099971 -0.019455 0.065250 0.110389 0.315341 0.094474 -0.016572 0.091440 -0.184755 -0.088844 0.168628 -0.172363 0.076766 0.087251 -0.254366 0.122728 -0.313760 0.033674 0.440883 -0.169163 -0.018769 -0.035156 0.235837 -0.431830 -0.094114 0.331722 -0.123835 0.047117 -0.150098 -0.095076 -0.153445 -0.021276 -0.108454 -0.067507 0.195569 -0.027296 0.098626 -0.031950 0.181801 -0.158379 -0.166808 -0.003346
31 0.130898 -0.367750 0.144829 0.342577 0.264013 -0.058089 0.019071 -0.206189 -0.164431 -0.003781 -0.264522 0.519440 0.262809 -0.237306 0.014480 -0.151815 -0.280012 0.414518 0.087864 0.193855 0.546890 -0.257151 0.151820 -0.395991 0.187716 -0.163636 -0.099476 0.115667 -0.029976 -0.612316 0.140412 0.249570 -0.030514 -0.091791 0.097100 0.242863 0.014363 0.039536 -0.057810 -0.050179 -0.475507 0.465279 -0.295385 -0.299177 -0.025335 0.533984 0.140336 0.016247 0.247575 -0.129597 0.071592 0.116570 0.254930 0.448497 -0.647912 -0.280832 -0.175185 -0.115383 -0.048764 -0.546025 0.074393 0.119172 -0.145483 0.249060 -0.425437 -0.505772 -0.365756 -0.076416 0.404077 0.008511 -0.045379 -0.414353 0.396338 -0.011517 -0.036643 0.341511 0.034405 0.291331 0.759963 -0.107290 0.295714 -0.240891 -0.189176 0.005352 -0.100773 0.047851 -0.200828 -0.099418 -0.221654 -0.033741 -0.117068 0.331432 0.276461 0.026217 -0.136387 0.172196 -0.222378 -0.229396 0.086083 -0.120136 -0.322708 0.367994 0.306623 -0.159027 -0.317661 -0.012737 0.238480 0.461007 -0.202311 0.072329 -0.296445 -0.057362 0.153478 0.023132 -0.114967 0.378819 -0.182768 0.529471 -0.332603 0.076209 -0.089938 0.172753 0.043185 -0.172969 0.467823 0.056507 -0.150610 0.023568
95 -0.124716 -0.168008 -0.149647 -0.026393 -0.031884 0.242233 -0.296647 -0.155868 0.346447 -0.470756 -0.138845 0.285452 -0.328234 -0.043912 -0.378131 -0.439987 -0.043295 0.283384 0.113763 -0.141785 0.411426 0.249416 -0.136345 -0.120356 -0.129941 -0.063655 0.392653 -0.063204 -0.090419 -0.166904 -0.072784 -0.312506 0.207368 -0.031907 0.247168 0.292650 -0.162430 -0.008682 0.083652 -0.033081 -0.098276 0.375572 -0.258759 -0.007385 -0.060197 0.105988 0.163188 -0.140229 0.250457 0.300980 -0.294412 -0.082331 0.121334 -0.025912 -0.045660 -0.314177 -0.282140 0.165380 0.017724 0.312118 -0.199571 -0.142777 -0.055665 -0.042178 0.004707 0.167358 -0.164675 -0.228781 -0.297790 0.245776 0.228255 -0.027730 0.134715 0.071576 0.196134 0.283023 0.166355 -0.093017 0.198405 -0.119469 -0.129734 -0.054080 -0.323553 -0.050019 0.008880 0.174420 0.053813 -0.192835 0.093885 0.129538 0.156817 0.153455 -0.281509 -0.231256 0.121515 -0.044982 -0.154072 -0.066650 0.110460 0.014650 0.151012 0.232108 -0.192023 0.142623 0.304938 -0.189975 -0.169781 -0.152817 0.024936 -0.365852 -0.101234 0.199611 0.139892 0.152062 -0.261850 -0.108832 0.092806 -0.013923 0.079079 0.205640 0.143440 0.143447 0.023732 -0.176194 0.151109 0.175611 0.036266 0.342593
48 0.006057 -0.287726 0.211925 0.260902 0.252984 -0.060268 0.120704 -0.197881 -0.124300 -0.125919 -0.139009 0.403986 -0.107247 0.003739 0.014317 -0.101145 -0.316769 0.255767 0.098069 0.086381 0.454585 -0.095006 0.055095 -0.347846 0.035445 -0.052820 -0.181789 0.041336 -0.214414 -0.450675 0.105000 0.051765 0.082189 0.049549 0.330858 0.128356 -0.015827 0.006097 0.075659 0.160202 -0.282050 0.298148 -0.139637 -0.037455 -0.016143 0.392397 0.128667 -0.239033 0.129302 -0.091163 0.039713 0.171769 0.321174 0.190713 -0.332447 -0.278695 -0.185629 0.108552 -0.135163 -0.344259 -0.124442 0.137523 -0.088755 0.308286 -0.285787 -0.444976 -0.172789 -0.087851 0.211726 -0.013317 -0.044657 -0.161056 0.156091 -0.077747 0.138451 0.221540 -0.030631 0.271149 0.380688 0.039516 0.162532 -0.158378 -0.084751 0.145693 -0.070643 0.099378 -0.122533 -0.027963 -0.108821 -0.000942 -0.097385 0.329499 0.094114 0.055922 -0.049051 0.123501 -0.204525 -0.186115 0.164881 -0.170283 -0.198668 0.419780 0.227464 -0.218759 -0.064772 0.022586 0.384817 0.444633 -0.156406 -0.170534 -0.097921 0.081932 0.035838 0.177441 -0.198045 0.206547 -0.264308 0.280750 -0.110314 0.021653 0.118891 0.142807 0.085741 -0.020839 0.200582 0.075501 0.129104 0.238113
140 0.036982 -0.194916 -0.041980 -0.107436 0.087840 -0.115861 -0.237227 0.044564 0.037572 -0.162657 -0.295200 -0.045594 -0.013908 -0.308689 0.085797 -0.091236 -0.258306 0.114595 -0.018840 -0.055025 -0.001976 -0.006695 0.153482 0.175846 -0.147373 0.143166 0.157720 -0.066708 0.232717 -0.278199 0.048688 0.098493 -0.005255 -0.149073 -0.277320 -0.037502 -0.024045 -0.059990 0.140135 0.083929 -0.025029 0.142640 -0.081260 0.039531 0.132075 0.228231 -0.157060 0.062564 0.086306 -0.174500 -0.196799 0.112946 0.001608 -0.048900 -0.397183 -0.192825 0.065202 -0.037004 0.006859 -0.045863 0.147790 -0.076280 0.255274 0.250704 -0.028084 0.067135 -0.270899 0.000950 0.168368 0.086327 -0.072535 -0.052255 0.468772 -0.074833 0.258934 0.129764 -0.281883 -0.027435 0.038839 0.173574 0.195588 0.294149 -0.145136 0.066415 -0.026967 0.064024 0.029057 -0.149332 0.206553 -0.020801 0.298696 -0.014621 -0.004857 0.000130 -0.039093 0.051017 0.064517 -0.250496 0.231856 -0.158250 -0.276914 0.025522 -0.192462 0.043117 0.047457 -0.295361 -0.067025 0.069713 -0.072897 -0.069175 0.207515 0.271666 -0.117406 0.047590 -0.184976 -0.049609 -0.065887 0.225840 -0.077586 -0.060225 -0.081003 0.221377 0.238595 -0.003675 0.154272 0.165578 -0.070966 0.096763
85 -0.225698 -0.401637 0.108471 -0.001561 0.278862 -0.087761 0.084124 -0.116408 -0.083903 -0.121323 -0.003374 0.199764 -0.392313 0.183814 -0.016485 -0.247088 -0.156359 0.193056 0.063028 -0.060813 0.233242 0.100090 0.035918 -0.436619 -0.196463 0.095642 -0.093201 0.124635 -0.101708 -0.187618 0.196761 -0.024992 0.281337 0.179479 0.392420 0.137463 -0.142505 0.160175 0.083568 0.244987 -0.096250 0.284204 -0.158132 -0.048642 -0.276170 0.214295 0.260229 -0.219517 0.052429 -0.133217 -0.239332 0.257482 0.078358 0.100024 -0.330335 -0.461613 -0.071227 0.185415 -0.328776 -0.028153 -0.129851 0.044067 -0.050968 0.346546 -0.236733 -0.403080 -0.062511 0.209354 -0.068757 -0.025281 0.030701 0.273313 -0.008235 -0.279880 0.218935 0.079590 -0.031993 0.383594 0.052927 0.119611 0.217638 -0.099949 -0.039952 0.240190 -0.225748 0.306715 0.032361 0.124189 -0.072444 0.020286 -0.051635 0.408133 -0.036990 -0.170761 -0.073035 0.032037 0.066081 -0.215713 0.112940 -0.121291 -0.231411 0.584487 0.019543 -0.154616 0.516156 0.086277 0.528688 0.346584 0.037814 -0.562747 -0.135435 0.326973 -0.298615 0.229466 -0.120162 -0.008205 -0.233593 -0.054301 -0.059576 -0.086482 0.344798 0.109162 -0.045444 0.048639 -0.092981 0.104835 0.205443 0.203926
157 0.032342 0.022552 -0.104549 -0.224051 0.053946 0.198608 -0.278439 0.043548 0.187186 -0.427997 -0.243178 0.129546 -0.174413 -0.213800 -0.317449 -0.395029 -0.087439 0.331867 -0.012324 0.074342 0.224844 0.174971 -0.124164 -0.184676 -0.253046 0.017215 0.651613 0.045845 0.154229 -0.080572 0.172758 -0.017923 0.173018 -0.156599 -0.240482 0.348902 -0.232383 -0.103445 0.088637 0.038364 -0.099294 0.076652 -0.075699 0.151133 -0.103130 0.047979 0.043565 0.044927 0.301621 0.150043 -0.120782 -0.329762 -0.080412 0.030662 0.111581 -0.175101 -0.449612 0.113401 0.130121 0.183360 -0.102859 -0.160362 0.037192 0.033887 -0.135063 0.343512 -0.204156 -0.002591 0.024564 0.097038 0.268497 0.081313 0.197183 -0.045457 0.125735 0.294724 0.084855 -0.088644 0.226862 -0.295160 0.071098 -0.123518 -0.279974 -0.013354 0.147623 0.089452 0.121471 0.030040 0.165155 -0.149997 0.302088 -0.021297 -0.168616 -0.184623 0.014911 0.022125 0.061129 -0.042190 0.167668 0.306681 -0.026661 0.442264 -0.102865 0.011568 0.298355 -0.063872 0.214373 -0.233950 -0.019561 -0.285089 -0.147601 0.238773 0.101105 0.098174 -0.185334 0.008347 -0.033397 0.056655 -0.106296 -0.024740 0.210003 -0.127474 -0.060339 -0.090465 -0.015936 0.167890 -0.119900 0.063327
168 0.000154 -0.154058 -0.294080 -0.136307 -0.044454 0.214091 -0.631227 -0.250888 0.267491 -0.045267 -0.308280 0.176844 -0.128538 -0.172799 -0.073261 -0.479965 0.083417 0.339654 0.064076 0.013055 0.117093 0.379415 -0.230248 -0.238953 0.143897 -0.127648 0.472613 -0.207697 0.139134 0.024160 -0.041480 -0.190193 0.102484 -0.032941 -0.008496 0.222839 -0.151458 0.270512 0.066150 -0.194290 -0.016948 0.387557 -0.380195 -0.093286 -0.049848 0.186052 0.102293 0.070171 0.270155 0.307400 -0.336895 0.087546 -0.026383 0.208866 -0.041753 -0.242886 -0.175892 0.123391 0.029392 0.062682 0.017160 -0.213292 -0.025109 0.004851 0.097435 0.200888 -0.223252 0.050360 -0.052238 0.160471 0.006790 -0.109265 0.059676 0.078277 0.342860 0.322142 0.004949 0.030466 0.241867 -0.118814 -0.063708 0.068058 -0.341351 -0.139451 -0.251025 0.160018 0.181796 0.008938 -0.039336 0.094779 0.117540 0.003372 -0.089892 -0.240732 -0.146438 -0.042474 0.015602 -0.273584 0.119112 -0.050594 -0.065099 0.089448 -0.273222 0.007635 -0.098387 -0.221556 -0.453857 -0.028620 0.117280 -0.404347 -0.087191 0.290174 -0.067689 0.051271 -0.052767 0.145156 0.181489 0.221953 -0.021144 0.099372 0.151884 0.038394 0.070101 -0.416836 0.180438 0.096274 0.106109 0.190259
118 -0.074315 -0.295378 0.089819 -0.137653 -0.087831 0.051038 -0.109507 0.103216 0.023051 0.161976 -0.033414 0.042237 -0.052374 0.058217 -0.023711 -0.199526 0.029896 -0.037657 -0.182144 0.011834 0.009248 -0.050998 -0.056596 0.082021 -0.042097 0.256877 -0.066400 0.072810 -0.004984 -0.040226 -0.056059 0.048310 0.348995 0.104838 -0.090670 -0.009210 -0.004325 0.073336 0.208797 0.162375 -0.190784 0.399895 -0.384075 -0.013584 -0.187453 0.353246 -0.058319 0.078807 -0.094624 -0.079490 -0.134003 0.167219 0.185193 0.018322 -0.393915 -0.462381 -0.047767 -0.156540 -0.183070 -0.137125 0.089161 -0.233753 0.002883 -0.116678 0.013465 0.041361 -0.002974 0.094395 -0.215310 0.270992 0.099497 -0.038337 0.275559 -0.013936 0.155144 -0.061644 -0.221252 0.020549 -0.125321 -0.018998 0.273360 -0.118296 -0.079630 -0.063078 -0.346895 0.341707 -0.033472 -0.099084 0.179087 0.106047 0.348518 0.130884 0.020425 0.138979 -0.218211 -0.087603 0.169497 -0.273336 0.148851 -0.017277 -0.311411 -0.002087 -0.315206 0.138547 0.444113 -0.244035 -0.120625 -0.000678 0.251917 -0.510523 -0.081779 0.248896 -0.076930 0.023006 -0.136128 -0.164565 -0.149352 0.093555 -0.063884 -0.078981 0.112344 0.125728 0.138175 -0.045640 0.204849 -0.171902 -0.139261 0.007542
1 -0.125960 -0.124564 0.135781 -0.020204 0.252407 0.100699 0.044035 0.107610 -0.082656 -0.351370 0.003245 0.176935 -0.027884 -0.392813 -0.141097 -0.292266 0.026551 0.116510 0.075185 -0.145020 0.266201 -0.026574 0.017489 -0.302122 -0.088023 -0.104586 0.042481 0.265489 0.161823 -0.269075 -0.082952 0.092565 -0.087447 -0.018957 -0.119353 0.032987 -0.094914 -0.348502 0.034586 0.067361 -0.077559 0.102524 0.116584 0.090856 -0.121663 0.157798 -0.081372 -0.226277 0.374999 -0.230988 -0.094076 -0.244542 -0.046134 0.288660 -0.616791 -0.094397 -0.222907 0.505133 -0.127433 0.085374 -0.067123 -0.097841 -0.155430 0.202593 -0.281178 0.050172 -0.137243 0.103646 -0.039164 -0.226968 0.217913 -0.137008 0.359862 -0.171824 0.135090 0.206307 0.293465 0.174280 0.498509 -0.386717 0.360674 -0.179491 -0.420129 0.021126 0.191522 0.199908 -0.325559 -0.092966 0.329676 -0.058087 0.026731 0.256110 -0.083156 -0.246361 -0.193028 0.163043 -0.016639 -0.317044 0.087209 0.000573 -0.264641 0.345163 0.340474 -0.123448 0.136363 0.104172 0.298828 0.385793 -0.338801 -0.279034 -0.311337 0.076480 0.213637 0.120797 -0.222400 0.070134 0.019840 0.425348 -0.226365 -0.027056 0.007857 0.207304 -0.167484 0.074262 -0.067964 0.385558 0.038709 0.341576
29 0.021183 -0.111603 -0.182759 -0.055251 -0.051950 0.257000 -0.443292 -0.136646 0.374194 -0.387172 -0.260783 0.270889 -0.301310 -0.106843 -0.306116 -0.540725 -0.115059 0.266978 0.052386 -0.014239 0.307899 0.252207 -0.187979 -0.120387 -0.158239 -0.025767 0.574454 -0.079650 0.094204 -0.079560 -0.001438 -0.290892 0.202419 0.027058 0.001251 0.369318 -0.180601 0.065966 0.074136 -0.072594 -0.071046 0.355307 -0.298810 0.035899 -0.052808 0.148626 0.045580 -0.049900 0.223317 0.385367 -0.286396 -0.093946 0.043139 -0.021241 0.009884 -0.260647 -0.328120 0.065113 0.088951 0.241512 -0.049988 -0.182645 0.040162 -0.007777 0.080935 0.227316 -0.265330 -0.166764 -0.184750 0.300623 0.197257 -0.013712 0.145826 0.077150 0.205284 0.335732 0.033117 -0.120401 0.177679 -0.081155 -0.221535 -0.011993 -0.286445 -0.003835 -0.040477 0.104352 0.110176 -0.083362 0.062238 -0.022613 0.170715 -0.001511 -0.275732 -0.202631 0.129302 0.015748 -0.128976 -0.040185 0.170133 0.102685 0.089285 0.287090 -0.307217 0.163854 0.195923 -0.252822 -0.186290 -0.293565 0.064164 -0.350235 -0.025930 0.197095 0.021659 0.137330 -0.194854 -0.077231 0.036660 0.003086 0.079944 0.136230 0.183463 -0.000278 0.057395 -0.260668 0.190604 0.080070 0.044086 0.192710
63 0.048026 -0.164237 -0.047172 -0.316285 0.016976 0.118102 -0.209005 0.124556 0.153159 -0.314956 -0.263647 -0.037004 -0.018258 -0.248427 -0.068262 -0.347800 -0.010124 0.042500 -0.158613 -0.080475 -0.033316 0.133577 -0.016595 0.134797 -0.236530 0.097812 0.367844 0.049725 0.289635 -0.097972 0.058660 0.093526 0.194331 -0.169001 -0.485496 0.054109 0.006335 -0.212992 0.141206 0.136564 0.041622 0.209464 0.032205 -0.052779 -0.039065 0.189510 -0.114549 0.041813 0.221309 -0.057260 -0.351660 -0.118478 -0.108556 -0.075431 -0.418702 -0.173959 -0.106796 0.011506 0.119349 0.205924 0.205443 -0.258625 0.174281 0.014514 -0.073126 0.435443 -0.288718 0.070605 -0.031635 0.120786 0.143949 -0.008212 0.518504 -0.068333 0.286557 0.048781 -0.173314 -0.101286 -0.021851 -0.125101 0.238912 0.232677 -0.243180 -0.068319 0.035996 0.192037 0.040157 -0.157636 0.330138 -0.105333 0.373187 0.007525 -0.144008 -0.137973 -0.081933 0.059359 0.285997 -0.345878 0.178211 0.181145 -0.224129 0.045505 -0.151128 0.279501 0.284403 -0.278532 -0.046161 -0.182352 -0.143641 -0.215255 -0.039865 0.176298 -0.068915 -0.017071 -0.200581 -0.086711 -0.060348 0.176735 -0.007035 -0.155018 -0.033171 0.158617 0.123063 0.058349 -0.025973 0.250050 -0.107727 0.077841
149 0.096353 -0.088494 0.052967 -0.020709 0.052612 -0.073688 -0.225826 0.108088 0.156090 0.035496 -0.209410 0.212570 -0.087259 -0.100214 0.024790 -0.039863 -0.221487 0.190444 -0.091581 0.082953 0.126201 -0.034699 0.082768 0.054997 -0.135671 0.243098 0.192308 0.042146 -0.001088 -0.254970 0.070120 -0.037196 0.165813 0.068187 0.038476 -0.052452 -0.015754 -0.005049 0.298791 0.211261 -0.256890 0.240946 -0.203478 0.064886 -0.099068 0.332453 -0.092716 0.039079 -0.044620 -0.061916 0.010291 0.172433 0.205294 -0.210231 -0.203650 -0.297460 -0.121785 -0.228314 -0.154046 -0.149524 0.049493 -0.020620 0.107569 0.034334 0.004875 0.058504 0.023727 -0.033036 -0.081500 0.172829 -0.024813 -0.039220 0.223846 -0.116661 0.161717 0.080849 -0.198965 0.020700 -0.022857 0.048295 0.224194 0.097321 0.023836 0.008664 -0.243365 0.201294 0.045281 -0.111790 0.029487 0.096085 0.222101 0.026835 -0.036486 0.306481 -0.146388 0.002175 0.133678 -0.112139 0.132178 -0.026148 -0.290257 0.042114 -0.193671 0.100091 0.311886 -0.247493 0.113932 0.159191 0.008138 -0.202865 0.141409 0.279483 0.032640 -0.024976 -0.172312 0.078447 -0.318303 0.122233 -0.066220 0.068933 0.008731 0.056787 0.204464 0.163508 0.202760 -0.118344 -0.026339 0.027681
145 0.060271 -0.194409 -0.083509 -0.245359 0.092937 -0.117804 -0.360433 0.144781 0.101616 -0.228322 -0.317792 -0.121495 -0.045118 -0.475154 0.142625 -0.197767 -0.267490 0.050699 -0.094385 -0.119772 -0.085873 0.048068 0.182107 0.258638 -0.192954 0.190678 0.302316 -0.076816 0.390981 -0.270958 0.055980 0.140921 -0.084894 -0.178877 -0.417132 -0.112947 -0.032571 -0.171892 0.131350 0.115224 0.068233 0.120080 -0.002080 0.098399 0.211634 0.212710 -0.263214 0.113626 0.162511 -0.172193 -0.314889 0.105745 -0.098767 -0.093540 -0.445859 -0.188644 0.035505 0.058769 0.075162 -0.006363 0.238159 -0.165990 0.327880 0.323006 -0.006036 0.200463 -0.320639 0.068359 0.141162 0.106895 -0.009140 -0.059481 0.593398 -0.088428 0.392689 0.172300 -0.298931 -0.023162 0.039368 0.170477 0.234240 0.405921 -0.230907 0.068992 -0.006768 0.082725 -0.014681 -0.118881 0.257660 -0.066565 0.311992 -0.095444 -0.059234 -0.132619 -0.096947 0.087143 0.148190 -0.350765 0.287757 -0.131853 -0.369886 0.042421 -0.193079 0.101023 0.012644 -0.414562 -0.082222 0.064770 -0.139352 -0.096006 0.265857 0.270813 -0.199589 0.008298 -0.184669 -0.096815 -0.040659 0.311141 -0.070127 -0.151159 -0.113037 0.282879 0.278145 -0.018153 0.141733 0.221487 -0.025000 0.104897
80 -0.092611 -0.257962 -0.052090 -0.158635 0.094254 0.038680 -0.131349 -0.037713 -0.069939 0.003894 -0.495599 0.103309 0.226363 -0.181114 -0.127660 -0.074300 0.051470 0.428677 0.095622 0.055703 0.192472 0.078994 -0.029344 -0.101795 -0.059573 -0.259471 0.269228 0.135631 0.040410 -0.119731 0.101166 0.220584 0.162382 -0.409492 -0.538376 0.141683 0.200310 0.255293 -0.012248 -0.234325 -0.223912 0.323649 -0.235748 -0.308377 -0.114481 0.363014 0.265095 0.247128 0.213185 -0.272584 -0.147420 -0.085678 0.042631 0.244044 -0.528101 -0.261038 0.004670 -0.309048 -0.201349 -0.057390 0.123989 -0.055406 -0.039205 -0.233844 -0.238166 0.183575 -0.231204 0.085788 0.274298 -0.221153 -0.054777 -0.091921 0.188658 0.100552 -0.113375 0.061433 -0.149364 -0.177635 -0.013879 -0.305928 0.344752 0.081789 -0.049316 -0.263440 -0.173744 0.117788 0.162704 -0.173707 0.279744 -0.122749 0.490594 0.066547 0.252954 0.254575 -0.113828 0.056748 0.316272 -0.173503 0.070700 0.146002 -0.259642 -0.132915 -0.163847 0.085967 0.248814 -0.069636 -0.133446 -0.147393 -0.055792 -0.050337 -0.290056 0.230546 0.234917 -0.051860 -0.048288 0.313806 -0.046996 0.400977 -0.210160 0.070500 -0.020159 -0.076706 -0.026852 -0.046817 -0.104419 0.134492 -0.312952 -0.123015
137 -0.003927 -0.242368 -0.302534 -0.130188 -0.041916 0.163832 -0.622859 -0.258430 0.256535 -0.022519 -0.300570 0.179725 -0.105848 -0.123543 -0.043421 -0.523510 0.050455 0.303757 0.032135 0.007136 0.128553 0.351762 -0.185060 -0.253445 0.130525 -0.100138 0.457913 -0.238565 0.196102 0.020797 -0.024376 -0.181944 0.125705 0.011652 0.039653 0.232253 -0.162529 0.310361 0.017208 -0.187794 -0.056058 0.408613 -0.412384 -0.172917 -0.063538 0.218866 0.120159 0.087267 0.227403 0.314940 -0.400471 0.158812 -0.052315 0.213127 -0.091833 -0.298453 -0.127196 0.040654 0.048517 0.053999 0.090881 -0.181876 0.024953 0.014333 0.080882 0.138559 -0.260933 0.083495 -0.045612 0.239182 0.019257 -0.112294 0.066045 0.062955 0.319184 0.315935 -0.006965 0.091748 0.241044 -0.062646 -0.093577 0.082629 -0.275492 -0.153119 -0.318820 0.128959 0.168647 0.028586 -0.145588 0.083245 0.021881 0.022629 -0.074793 -0.290161 -0.169135 -0.026212 0.020570 -0.263819 0.135649 -0.015324 -0.088936 0.107715 -0.280967 0.052198 -0.117991 -0.243714 -0.455887 -0.037156 0.141393 -0.420568 -0.093293 0.233245 -0.148375 0.009316 -0.006598 0.112984 0.171851 0.213924 -0.015832 0.095588 0.172055 0.052223 0.078676 -0.452281 0.211979 0.035745 0.123339 0.133986
